{"learner":{"attributes":{"scikit_learn":"{\"_estimator_type\": \"regressor\"}"},"feature_names":["hour_of_day","temp","prev_delay"],"feature_types":["int","float","float"],"gradient_booster":{"model":{"gbtree_model_param":{"num_parallel_tree":"1","num_trees":"100"},"iteration_indptr":[0,1,2,3,4,5,6,7,8,9,10,11,12,13,14,15,16,17,18,19,20,21,22,23,24,25,26,27,28,29,30,31,32,33,34,35,36,37,38,39,40,41,42,43,44,45,46,47,48,49,50,51,52,53,54,55,56,57,58,59,60,61,62,63,64,65,66,67,68,69,70,71,72,73,74,75,76,77,78,79,80,81,82,83,84,85,86,87,88,89,90,91,92,93,94,95,96,97,98,99,100],"tree_info":[0,0,0,0,0,0,0,0,0,0,0,0,0,0,0,0,0,0,0,0,0,0,0,0,0,0,0,0,0,0,0,0,0,0,0,0,0,0,0,0,0,0,0,0,0,0,0,0,0,0,0,0,0,0,0,0,0,0,0,0,0,0,0,0,0,0,0,0,0,0,0,0,0,0,0,0,0,0,0,0,0,0,0,0,0,0,0,0,0,0,0,0,0,0,0,0,0,0,0,0],"trees":[{"base_weights":[2.2540353E-7,-1.1166171E1,1.1175104E1,-1.7111162E1,-5.7609487E0,6.1244917E0,1.7443243E1,-2.0317358E1,-1.48488455E1,-8.714145E0,-2.8745847E0,3.1734495E0,9.310043E0,1.4980968E1,2.0132769E1,-2.1137748E0,-1.8354008E0,-1.5958399E0,-1.2816643E0,-9.8756886E-1,-6.9085455E-1,-4.1575885E-1,-1.4271584E-1,2.0060988E-1,5.324888E-1,7.644054E-1,1.0614147E0,1.3647454E0,1.6389569E0,1.8635378E0,2.1176302E0],"categories":[],"categories_nodes":[],"categories_segments":[],"categories_sizes":[],"default_left":[0,0,0,0,0,0,0,0,0,0,0,0,0,0,0,0,0,0,0,0,0,0,0,0,0,0,0,0,0,0,0],"id":0,"left_children":[1,3,5,7,9,11,13,15,17,19,21,23,25,27,29,-1,-1,-1,-1,-1,-1,-1,-1,-1,-1,-1,-1,-1,-1,-1,-1],"loss_changes":[6.241651E5,8.030072E4,7.903803E4,8.337094E3,1.1158434E4,1.2999824E4,7.0823125E3,4.0129688E2,1.378375E3,1.2908125E3,1.2290063E3,1.8000977E3,1.365832E3,8.770781E2,4.3354688E2,0E0,0E0,0E0,0E0,0E0,0E0,0E0,0E0,0E0,0E0,0E0,0E0,0E0,0E0,0E0,0E0],"parents":[2147483647,0,0,1,1,2,2,3,3,4,4,5,5,6,6,7,7,8,8,9,9,10,10,11,11,12,12,13,13,14,14],"right_children":[2,4,6,8,10,12,14,16,18,20,22,24,26,28,30,-1,-1,-1,-1,-1,-1,-1,-1,-1,-1,-1,-1,-1,-1,-1,-1],"split_conditions":[1.5043423E1,7.475235E0,2.3254827E1,2.9310963E0,1.1071685E1,1.9335445E1,2.6722368E1,1.6E1,5.6660814E0,9.549456E0,1.3063966E1,1.7793383E1,2.1029089E1,1.3E1,1E1,-2.1137748E0,-1.8354008E0,-1.5958399E0,-1.2816643E0,-9.8756886E-1,-6.9085455E-1,-4.1575885E-1,-1.4271584E-1,2.0060988E-1,5.324888E-1,7.644054E-1,1.0614147E0,1.3647454E0,1.6389569E0,1.8635378E0,2.1176302E0],"split_indices":[2,2,2,2,2,2,2,0,2,2,2,2,2,0,0,0,0,0,0,0,0,0,0,0,0,0,0,0,0,0,0],"split_type":[0,0,0,0,0,0,0,0,0,0,0,0,0,0,0,0,0,0,0,0,0,0,0,0,0,0,0,0,0,0,0],"sum_hessian":[5E3,2.501E3,2.499E3,1.19E3,1.311E3,1.385E3,1.114E3,4.89E2,7.01E2,6.47E2,6.64E2,7.2E2,6.65E2,5.85E2,5.29E2,3.38E2,1.51E2,4.49E2,2.52E2,3.91E2,2.56E2,3.51E2,3.13E2,4.68E2,2.52E2,2.95E2,3.7E2,3.06E2,2.79E2,2.25E2,3.04E2],"tree_param":{"num_deleted":"0","num_feature":"3","num_nodes":"31","size_leaf_vector":"1"}},{"base_weights":[9.623033E-5,-9.598003E0,1.0548742E1,-1.5405778E1,-4.750798E0,6.0097513E0,1.5705183E1,-1.8624506E1,-1.3562575E1,-7.4825506E0,-1.7894547E0,3.5253398E0,8.547976E0,1.315043E1,1.7813915E1,-1.9680818E0,-1.7481966E0,-1.4675732E0,-1.1724404E0,-8.8906395E-1,-5.893194E-1,-2.857757E-1,-3.6863074E-2,2.0807688E-1,4.7516003E-1,7.279559E-1,9.7891706E-1,1.1465842E0,1.4071721E0,1.5920666E0,1.8675946E0],"categories":[],"categories_nodes":[],"categories_segments":[],"categories_sizes":[],"default_left":[0,0,0,0,0,0,0,0,0,0,0,0,0,0,0,0,0,0,0,0,0,0,0,0,0,0,0,0,0,0,0],"id":1,"left_children":[1,3,5,7,9,11,13,15,17,19,21,23,25,27,29,-1,-1,-1,-1,-1,-1,-1,-1,-1,-1,-1,-1,-1,-1,-1,-1],"loss_changes":[5.064373E5,7.36555E4,5.5679844E4,6.8133438E3,1.1546732E4,7.972172E3,5.7725625E3,1.76125E2,1.3850625E3,1.6104023E3,1.0417227E3,1.1291367E3,9.158594E2,6.270781E2,6.949375E2,0E0,0E0,0E0,0E0,0E0,0E0,0E0,0E0,0E0,0E0,0E0,0E0,0E0,0E0,0E0,0E0],"parents":[2147483647,0,0,1,1,2,2,3,3,4,4,5,5,6,6,7,7,8,8,9,9,10,10,11,11,12,12,13,13,14,14],"right_children":[2,4,6,8,10,12,14,16,18,20,22,24,26,28,30,-1,-1,-1,-1,-1,-1,-1,-1,-1,-1,-1,-1,-1,-1,-1,-1],"split_conditions":[1.5712755E1,7.475235E0,2.3254827E1,2.5041583E0,1.1750268E1,1.951755E1,2.6210182E1,1.2449791E0,5.390793E0,9.549456E0,1.3893541E1,1.1E1,2.136088E1,9E0,2.746776E1,-1.9680818E0,-1.7481966E0,-1.4675732E0,-1.1724404E0,-8.8906395E-1,-5.893194E-1,-2.857757E-1,-3.6863074E-2,2.0807688E-1,4.7516003E-1,7.279559E-1,9.7891706E-1,1.1465842E0,1.4071721E0,1.5920666E0,1.8675946E0],"split_indices":[2,2,2,2,2,2,2,2,2,2,2,0,2,0,2,0,0,0,0,0,0,0,0,0,0,0,0,0,0,0,0],"split_type":[0,0,0,0,0,0,0,0,0,0,0,0,0,0,0,0,0,0,0,0,0,0,0,0,0,0,0,0,0,0,0],"sum_hessian":[5E3,2.618E3,2.382E3,1.19E3,1.428E3,1.268E3,1.114E3,4.3E2,7.6E2,7.42E2,6.86E2,6.42E2,6.26E2,5.07E2,6.07E2,2.15E2,2.15E2,4.69E2,2.91E2,3.91E2,3.51E2,3.91E2,2.95E2,2.96E2,3.46E2,3.13E2,3.13E2,1.84E2,3.23E2,1.96E2,4.11E2],"tree_param":{"num_deleted":"0","num_feature":"3","num_nodes":"31","size_leaf_vector":"1"}},{"base_weights":[1.3610483E-4,-8.641318E0,9.497395E0,-1.3276269E1,-3.7151253E0,5.41066E0,1.41400585E1,-1.5943682E1,-1.0944674E1,-5.903946E0,-1.3261216E0,3.1738684E0,7.6959004E0,1.1840414E1,1.6038216E1,-1.7221375E0,-1.4447359E0,-1.1941732E0,-9.067947E-1,-7.42911E-1,-4.8306084E-1,-2.7316985E-1,-3.7255544E-2,2.0101877E-1,4.5657927E-1,6.5539205E-1,8.8133717E-1,1.0586456E0,1.2889487E0,1.4782403E0,1.7159392E0],"categories":[],"categories_nodes":[],"categories_segments":[],"categories_sizes":[],"default_left":[0,0,0,0,0,0,0,0,0,0,0,0,0,0,0,0,0,0,0,0,0,0,0,0,0,0,0,0,0,0,0],"id":2,"left_children":[1,3,5,7,9,11,13,15,17,19,21,23,25,27,29,-1,-1,-1,-1,-1,-1,-1,-1,-1,-1,-1,-1,-1,-1,-1,-1],"loss_changes":[4.1051475E5,5.9749438E4,4.513697E4,8.215375E3,6.6383574E3,6.462203E3,4.6771562E3,9.499219E2,1.2446016E3,1.0494551E3,8.1523157E2,1.0323247E3,7.423672E2,5.318203E2,6.0240625E2,0E0,0E0,0E0,0E0,0E0,0E0,0E0,0E0,0E0,0E0,0E0,0E0,0E0,0E0,0E0,0E0],"parents":[2147483647,0,0,1,1,2,2,3,3,4,4,5,5,6,6,7,7,8,8,9,9,10,10,11,11,12,12,13,13,14,14],"right_children":[2,4,6,8,10,12,14,16,18,20,22,24,26,28,30,-1,-1,-1,-1,-1,-1,-1,-1,-1,-1,-1,-1,-1,-1,-1,-1],"split_conditions":[1.5712755E1,8.251634E0,2.3254827E1,3.7420833E0,1.2110378E1,1.951755E1,2.6210182E1,1.9477087E0,6.7462525E0,9E0,1E1,1.7793383E1,2.136088E1,1.2E1,2.8061878E1,-1.7221375E0,-1.4447359E0,-1.1941732E0,-9.067947E-1,-7.42911E-1,-4.8306084E-1,-2.7316985E-1,-3.7255544E-2,2.0101877E-1,4.5657927E-1,6.5539205E-1,8.8133717E-1,1.0586456E0,1.2889487E0,1.4782403E0,1.7159392E0],"split_indices":[2,2,2,2,2,2,2,2,2,0,0,2,2,0,2,0,0,0,0,0,0,0,0,0,0,0,0,0,0,0,0],"split_type":[0,0,0,0,0,0,0,0,0,0,0,0,0,0,0,0,0,0,0,0,0,0,0,0,0,0,0,0,0,0,0],"sum_hessian":[5E3,2.618E3,2.382E3,1.348E3,1.27E3,1.268E3,1.114E3,6.26E2,7.22E2,6.62E2,6.08E2,6.42E2,6.26E2,5.07E2,6.07E2,3.32E2,2.94E2,4.68E2,2.54E2,2.71E2,3.91E2,2.45E2,3.63E2,3.51E2,2.91E2,3.13E2,3.13E2,2.36E2,2.71E2,2.93E2,3.14E2],"tree_param":{"num_deleted":"0","num_feature":"3","num_nodes":"31","size_leaf_vector":"1"}},{"base_weights":[3.0898457E-4,-8.15764E0,8.164785E0,-1.2491505E1,-4.2172527E0,3.8505015E0,1.207465E1,-1.4717018E1,-1.0696952E1,-6.7216597E0,-2.2962515E0,1.6075199E0,5.63096E0,9.341736E0,1.3905603E1,-1.5671489E0,-1.3227421E0,-1.1964625E0,-9.457473E-1,-7.37917E-1,-5.024216E-1,-3.338493E-1,-1.13235645E-1,3.9507102E-2,2.6242623E-1,3.8560525E-1,6.6620517E-1,8.692052E-1,1.1067873E0,1.2482185E0,1.5157074E0],"categories":[],"categories_nodes":[],"categories_segments":[],"categories_sizes":[],"default_left":[0,0,0,0,0,0,0,0,0,0,0,0,0,0,0,0,0,0,0,0,0,0,0,0,0,0,0,0,0,0,0],"id":3,"left_children":[1,3,5,7,9,11,13,15,17,19,21,23,25,27,29,-1,-1,-1,-1,-1,-1,-1,-1,-1,-1,-1,-1,-1,-1,-1,-1],"loss_changes":[3.3316012E5,4.2674234E4,4.2124156E4,4.5991875E3,6.2965547E3,4.743256E3,6.430125E3,5.448281E2,9.2858594E2,5.979785E2,8.987361E2,6.498544E2,1.1876641E3,4.9704297E2,1.2056094E3,0E0,0E0,0E0,0E0,0E0,0E0,0E0,0E0,0E0,0E0,0E0,0E0,0E0,0E0,0E0,0E0],"parents":[2147483647,0,0,1,1,2,2,3,3,4,4,5,5,6,6,7,7,8,8,9,9,10,10,11,11,12,12,13,13,14,14],"right_children":[2,4,6,8,10,12,14,16,18,20,22,24,26,28,30,-1,-1,-1,-1,-1,-1,-1,-1,-1,-1,-1,-1,-1,-1,-1,-1],"split_conditions":[1.5043423E1,7.475235E0,2.202013E1,3.1572568E0,1.0620589E1,1.8116217E1,2.512558E1,1.4E1,1.2E1,1.7E1,1.2879635E1,1.1E1,9E0,1.8E1,2.746776E1,-1.5671489E0,-1.3227421E0,-1.1964625E0,-9.457473E-1,-7.37917E-1,-5.024216E-1,-3.338493E-1,-1.13235645E-1,3.9507102E-2,2.6242623E-1,3.8560525E-1,6.6620517E-1,8.692052E-1,1.1067873E0,1.2482185E0,1.5157074E0],"split_indices":[2,2,2,2,2,2,2,0,0,0,2,0,0,0,2,0,0,0,0,0,0,0,0,0,0,0,0,0,0,0,0],"split_type":[0,0,0,0,0,0,0,0,0,0,0,0,0,0,0,0,0,0,0,0,0,0,0,0,0,0,0,0,0,0,0],"sum_hessian":[5E3,2.501E3,2.499E3,1.19E3,1.311E3,1.189E3,1.31E3,5.28E2,6.62E2,5.68E2,7.43E2,5.27E2,6.62E2,5.28E2,7.82E2,3.16E2,2.12E2,3.23E2,3.39E2,4.07E2,1.61E2,3.91E2,3.52E2,2.41E2,2.86E2,2.45E2,4.17E2,3.88E2,1.4E2,3.71E2,4.11E2],"tree_param":{"num_deleted":"0","num_feature":"3","num_nodes":"31","size_leaf_vector":"1"}},{"base_weights":[1.5301048E-4,-6.9588904E0,7.7657857E0,-1.077486E1,-2.9629972E0,4.4483347E0,1.1477937E1,-1.2788772E1,-8.684176E0,-5.0185184E0,-1.2555711E0,2.874716E0,6.6017528E0,9.851372E0,1.3254708E1,-1.4031509E0,-1.1580217E0,-9.8324794E-1,-7.5642866E-1,-6.213835E-1,-3.9953634E-1,-2.2919546E-1,-2.8654842E-2,1.6778688E-1,3.8618073E-1,5.7476217E-1,7.9259527E-1,8.630148E-1,1.0753292E0,1.2291648E0,1.4630289E0],"categories":[],"categories_nodes":[],"categories_segments":[],"categories_sizes":[],"default_left":[0,0,0,0,0,0,0,0,0,0,0,0,0,0,0,0,0,0,0,0,0,0,0,0,0,0,0,0,0,0,0],"id":4,"left_children":[1,3,5,7,9,11,13,15,17,19,21,23,25,27,29,-1,-1,-1,-1,-1,-1,-1,-1,-1,-1,-1,-1,-1,-1,-1,-1],"loss_changes":[2.7031497E5,4.0192836E4,2.9061297E4,5.568828E3,4.5211475E3,4.2168457E3,3.0918281E3,8.663281E2,7.807969E2,6.90625E2,7.083644E2,8.4885254E2,5.5050195E2,5.5264844E2,5.2228906E2,0E0,0E0,0E0,0E0,0E0,0E0,0E0,0E0,0E0,0E0,0E0,0E0,0E0,0E0,0E0,0E0],"parents":[2147483647,0,0,1,1,2,2,3,3,4,4,5,5,6,6,7,7,8,8,9,9,10,10,11,11,12,12,13,13,14,14],"right_children":[2,4,6,8,10,12,14,16,18,20,22,24,26,28,30,-1,-1,-1,-1,-1,-1,-1,-1,-1,-1,-1,-1,-1,-1,-1,-1],"split_conditions":[1.5850564E1,8.251634E0,2.3254827E1,4.0875607E0,1.1750268E1,2.0109589E1,2.6722368E1,1.9477087E0,1.2E1,1E1,1.2E1,1.1E1,1.5E1,2.4719412E1,1.4E1,-1.4031509E0,-1.1580217E0,-9.8324794E-1,-7.5642866E-1,-6.213835E-1,-3.9953634E-1,-2.2919546E-1,-2.8654842E-2,1.6778688E-1,3.8618073E-1,5.7476217E-1,7.9259527E-1,8.630148E-1,1.0753292E0,1.2291648E0,1.4630289E0],"split_indices":[2,2,2,2,2,2,2,2,0,0,0,0,0,2,0,0,0,0,0,0,0,0,0,0,0,0,0,0,0,0,0],"split_type":[0,0,0,0,0,0,0,0,0,0,0,0,0,0,0,0,0,0,0,0,0,0,0,0,0,0,0,0,0,0,0],"sum_hessian":[5E3,2.637E3,2.363E3,1.348E3,1.289E3,1.249E3,1.114E3,6.84E2,6.64E2,5.84E2,7.05E2,7.23E2,5.26E2,5.85E2,5.29E2,3.32E2,3.52E2,3.24E2,3.4E2,2.67E2,3.17E2,3.4E2,3.65E2,3.28E2,3.95E2,3.23E2,2.03E2,2.53E2,3.32E2,3.17E2,2.12E2],"tree_param":{"num_deleted":"0","num_feature":"3","num_nodes":"31","size_leaf_vector":"1"}},{"base_weights":[3.3197802E-4,-6.9520555E0,6.3211665E0,-1.0381204E1,-3.936277E0,2.8347723E0,9.80008E0,-1.2298103E1,-9.158155E0,-5.6561203E0,-2.2531075E0,1.0276983E0,4.5966864E0,7.4510255E0,1.1188446E1,-1.3032166E0,-1.1149805E0,-1.0118538E0,-8.212766E-1,-6.746557E-1,-4.9102527E-1,-3.340546E-1,-1.2307459E-1,-1.1288464E-2,1.721385E-1,3.114657E-1,5.457889E-1,6.154505E-1,8.078483E-1,1.0022836E0,1.232407E0],"categories":[],"categories_nodes":[],"categories_segments":[],"categories_sizes":[],"default_left":[0,0,0,0,0,0,0,0,0,0,0,0,0,0,0,0,0,0,0,0,0,0,0,0,0,0,0,0,0,0,0],"id":5,"left_children":[1,3,5,7,9,11,13,15,17,19,21,23,25,27,29,-1,-1,-1,-1,-1,-1,-1,-1,-1,-1,-1,-1,-1,-1,-1,-1],"loss_changes":[2.1981234E5,2.4592703E4,3.1749844E4,2.4991094E3,3.6607422E3,4.1661973E3,4.1922656E3,2.179961E2,5.379297E2,4.7682422E2,7.107471E2,5.128965E2,8.292051E2,3.489004E2,9.645469E2,0E0,0E0,0E0,0E0,0E0,0E0,0E0,0E0,0E0,0E0,0E0,0E0,0E0,0E0,0E0,0E0],"parents":[2147483647,0,0,1,1,2,2,3,3,4,4,5,5,6,6,7,7,8,8,9,9,10,10,11,11,12,12,13,13,14,14],"right_children":[2,4,6,8,10,12,14,16,18,20,22,24,26,28,30,-1,-1,-1,-1,-1,-1,-1,-1,-1,-1,-1,-1,-1,-1,-1,-1],"split_conditions":[1.425278E1,6.8522687E0,2.202013E1,2.5041583E0,1.0502139E1,1.8116217E1,2.4962843E1,1.3E1,1.2E1,9E0,1.2E1,9E0,9E0,8E0,2.746776E1,-1.3032166E0,-1.1149805E0,-1.0118538E0,-8.212766E-1,-6.746557E-1,-4.9102527E-1,-3.340546E-1,-1.2307459E-1,-1.1288464E-2,1.721385E-1,3.114657E-1,5.457889E-1,6.154505E-1,8.078483E-1,1.0022836E0,1.232407E0],"split_indices":[2,2,2,2,2,2,2,0,0,0,0,0,0,0,2,0,0,0,0,0,0,0,0,0,0,0,0,0,0,0,0],"split_type":[0,0,0,0,0,0,0,0,0,0,0,0,0,0,0,0,0,0,0,0,0,0,0,0,0,0,0,0,0,0,0],"sum_hessian":[5E3,2.381E3,2.619E3,1.113E3,1.268E3,1.309E3,1.31E3,4.3E2,6.83E2,6.26E2,6.42E2,6.47E2,6.62E2,4.89E2,8.21E2,2.56E2,1.74E2,3.34E2,3.49E2,2.51E2,3.75E2,3.1E2,3.32E2,2.45E2,4.02E2,2.45E2,4.17E2,1.63E2,3.26E2,4.1E2,4.11E2],"tree_param":{"num_deleted":"0","num_feature":"3","num_nodes":"31","size_leaf_vector":"1"}},{"base_weights":[5.924966E-5,-6.1633296E0,5.78137E0,-9.399379E0,-3.4883955E0,2.3370972E0,8.5607195E0,-1.1148176E1,-8.336379E0,-5.294954E0,-2.0525813E0,7.96454E-1,3.6443796E0,6.499605E0,1.007232E1,-1.1915153E0,-1.0246058E0,-9.038591E-1,-7.2565776E-1,-5.926978E-1,-4.0610123E-1,-3.0442625E-1,-1.0818157E-1,2.9266903E-2,2.2290252E-1,2.3446336E-1,4.43429E-1,5.5423206E-1,7.2400475E-1,9.2737836E-1,1.146742E0],"categories":[],"categories_nodes":[],"categories_segments":[],"categories_sizes":[],"default_left":[0,0,0,0,0,0,0,0,0,0,0,0,0,0,0,0,0,0,0,0,0,0,0,0,0,0,0,0,0,0,0],"id":6,"left_children":[1,3,5,7,9,11,13,15,17,19,21,23,25,27,29,-1,-1,-1,-1,-1,-1,-1,-1,-1,-1,-1,-1,-1,-1,-1,-1],"loss_changes":[1.782336E5,2.0923914E4,2.4687484E4,1.9426406E3,3.4312139E3,2.3213179E3,4.383586E3,1.6228906E2,4.538125E2,4.337207E2,7.100593E2,3.825745E2,6.302529E2,3.9012305E2,8.093906E2,0E0,0E0,0E0,0E0,0E0,0E0,0E0,0E0,0E0,0E0,0E0,0E0,0E0,0E0,0E0,0E0],"parents":[2147483647,0,0,1,1,2,2,3,3,4,4,5,5,6,6,7,7,8,8,9,9,10,10,11,11,12,12,13,13,14,14],"right_children":[2,4,6,8,10,12,14,16,18,20,22,24,26,28,30,-1,-1,-1,-1,-1,-1,-1,-1,-1,-1,-1,-1,-1,-1,-1,-1],"split_conditions":[1.4501762E1,6.7462525E0,2.136088E1,2.3892481E0,1.0159298E1,1.7649416E1,2.4962843E1,1.2449791E0,4.887498E0,1.6E1,1.2E1,1.8E1,9E0,1.1E1,2.8209354E1,-1.1915153E0,-1.0246058E0,-9.038591E-1,-7.2565776E-1,-5.926978E-1,-4.0610123E-1,-3.0442625E-1,-1.0818157E-1,2.9266903E-2,2.2290252E-1,2.3446336E-1,4.43429E-1,5.5423206E-1,7.2400475E-1,9.2737836E-1,1.146742E0],"split_indices":[2,2,2,2,2,2,2,2,2,0,0,0,0,0,2,0,0,0,0,0,0,0,0,0,0,0,0,0,0,0,0],"split_type":[0,0,0,0,0,0,0,0,0,0,0,0,0,0,0,0,0,0,0,0,0,0,0,0,0,0,0,0,0,0,0],"sum_hessian":[5E3,2.42E3,2.58E3,1.094E3,1.326E3,1.153E3,1.427E3,4.1E2,6.84E2,5.86E2,7.4E2,5.3E2,6.23E2,6.06E2,8.21E2,2.15E2,1.95E2,4.1E2,2.74E2,3.85E2,2.01E2,3.65E2,3.75E2,3.93E2,1.37E2,2.37E2,3.86E2,2.68E2,3.38E2,5.27E2,2.94E2],"tree_param":{"num_deleted":"0","num_feature":"3","num_nodes":"31","size_leaf_vector":"1"}},{"base_weights":[-1.4181982E-4,-5.0518665E0,5.7283072E0,-7.7715063E0,-1.9868748E0,3.560159E0,8.747677E0,-9.265273E0,-6.0933685E0,-3.3298886E0,-6.4925164E-1,2.1366978E0,5.0662775E0,7.7701497E0,9.967438E0,-1.0729154E0,-8.648864E-1,-7.119008E-1,-5.258645E-1,-4.474917E-1,-2.7548867E-1,-1.7706342E-1,-1.0038519E-3,1.5991703E-1,3.614252E-1,4.425055E-1,6.0813755E-1,6.4498657E-1,8.5404366E-1,8.8998574E-1,1.1023307E0],"categories":[],"categories_nodes":[],"categories_segments":[],"categories_sizes":[],"default_left":[0,0,0,0,0,0,0,0,0,0,0,0,0,0,0,0,0,0,0,0,0,0,0,0,0,0,0,0,0,0,0],"id":7,"left_children":[1,3,5,7,9,11,13,15,17,19,21,23,25,27,29,-1,-1,-1,-1,-1,-1,-1,-1,-1,-1,-1,-1,-1,-1,-1,-1],"loss_changes":[1.4475062E5,2.2140781E4,1.5313711E4,3.473039E3,2.245192E3,2.9177441E3,1.0898672E3,5.7765234E2,5.327422E2,3.9850928E2,4.501342E2,5.5335547E2,4.0463672E2,5.0222656E2,3.8885547E2,0E0,0E0,0E0,0E0,0E0,0E0,0E0,0E0,0E0,0E0,0E0,0E0,0E0,0E0,0E0,0E0],"parents":[2147483647,0,0,1,1,2,2,3,3,4,4,5,5,6,6,7,7,8,8,9,9,10,10,11,11,12,12,13,13,14,14],"right_children":[2,4,6,8,10,12,14,16,18,20,22,24,26,28,30,-1,-1,-1,-1,-1,-1,-1,-1,-1,-1,-1,-1,-1,-1,-1,-1],"split_conditions":[1.5963983E1,8.607106E0,2.4041168E1,4.460177E0,1.2239744E1,2.0109589E1,2.7348547E1,1.2449791E0,1.1E1,7E0,9E0,1.8E1,1.5E1,9E0,1.2E1,-1.0729154E0,-8.648864E-1,-7.119008E-1,-5.258645E-1,-4.474917E-1,-2.7548867E-1,-1.7706342E-1,-1.0038519E-3,1.5991703E-1,3.614252E-1,4.425055E-1,6.0813755E-1,6.4498657E-1,8.5404366E-1,8.8998574E-1,1.1023307E0],"split_indices":[2,2,2,2,2,2,2,2,0,0,0,0,0,0,0,0,0,0,0,0,0,0,0,0,0,0,0,0,0,0,0],"split_type":[0,0,0,0,0,0,0,0,0,0,0,0,0,0,0,0,0,0,0,0,0,0,0,0,0,0,0,0,0,0,0],"sum_hessian":[5E3,2.657E3,2.343E3,1.407E3,1.25E3,1.365E3,9.78E2,7.42E2,6.65E2,6.23E2,6.27E2,7.03E2,6.62E2,5.47E2,4.31E2,2.15E2,5.27E2,2.95E2,3.7E2,2.06E2,4.17E2,2.27E2,4E2,5.17E2,1.86E2,4.09E2,2.53E2,2.05E2,3.42E2,2.19E2,2.12E2],"tree_param":{"num_deleted":"0","num_feature":"3","num_nodes":"31","size_leaf_vector":"1"}},{"base_weights":[6.972158E-5,-5.0837593E0,4.6220856E0,-7.68526E0,-2.9417894E0,2.1379814E0,7.2529297E0,-9.067146E0,-6.8196354E0,-4.3159766E0,-1.7493771E0,8.4648174E-1,3.550498E0,6.003875E0,8.607155E0,-9.878864E-1,-8.235348E-1,-7.62317E-1,-5.9188503E-1,-4.8387513E-1,-3.2748526E-1,-2.5553828E-1,-9.452657E-2,1.8266667E-2,1.6698755E-1,2.840731E-1,4.5878434E-1,5.513224E-1,7.3254824E-1,7.801457E-1,9.7374517E-1],"categories":[],"categories_nodes":[],"categories_segments":[],"categories_sizes":[],"default_left":[0,0,0,0,0,0,0,0,0,0,0,0,0,0,0,0,0,0,0,0,0,0,0,0,0,0,0,0,0,0,0],"id":8,"left_children":[1,3,5,7,9,11,13,15,17,19,21,23,25,27,29,-1,-1,-1,-1,-1,-1,-1,-1,-1,-1,-1,-1,-1,-1,-1,-1],"loss_changes":[1.1753469E5,1.3250703E4,1.7106957E4,1.2240703E3,2.1357344E3,2.4579282E3,2.099914E3,1.9614844E2,4.362129E2,3.1452832E2,4.5256372E2,3.8558124E2,4.6112695E2,3.9083008E2,4.7772656E2,0E0,0E0,0E0,0E0,0E0,0E0,0E0,0E0,0E0,0E0,0E0,0E0,0E0,0E0,0E0,0E0],"parents":[2147483647,0,0,1,1,2,2,3,3,4,4,5,5,6,6,7,7,8,8,9,9,10,10,11,11,12,12,13,13,14,14],"right_children":[2,4,6,8,10,12,14,16,18,20,22,24,26,28,30,-1,-1,-1,-1,-1,-1,-1,-1,-1,-1,-1,-1,-1,-1,-1,-1],"split_conditions":[1.425278E1,6.638522E0,2.2254982E1,2.3892481E0,1.0159298E1,1.8538034E1,2.6210182E1,1.1E1,1.3E1,1.6E1,1.2E1,1.6692574E1,1.5E1,1.8E1,1.4E1,-9.878864E-1,-8.235348E-1,-7.62317E-1,-5.9188503E-1,-4.8387513E-1,-3.2748526E-1,-2.5553828E-1,-9.452657E-2,1.8266667E-2,1.6698755E-1,2.840731E-1,4.5878434E-1,5.513224E-1,7.3254824E-1,7.801457E-1,9.7374517E-1],"split_indices":[2,2,2,2,2,2,2,0,0,0,0,2,0,0,0,0,0,0,0,0,0,0,0,0,0,0,0,0,0,0,0],"split_type":[0,0,0,0,0,0,0,0,0,0,0,0,0,0,0,0,0,0,0,0,0,0,0,0,0,0,0,0,0,0,0],"sum_hessian":[5E3,2.381E3,2.619E3,1.074E3,1.307E3,1.348E3,1.271E3,4.1E2,6.64E2,6.06E2,7.01E2,7.05E2,6.43E2,6.64E2,6.07E2,2.02E2,2.08E2,3.47E2,3.17E2,4.01E2,2.05E2,3.49E2,3.52E2,3.91E2,3.14E2,3.84E2,2.59E2,4.88E2,1.76E2,3.59E2,2.48E2],"tree_param":{"num_deleted":"0","num_feature":"3","num_nodes":"31","size_leaf_vector":"1"}},{"base_weights":[-9.520343E-6,-4.6855063E0,4.0661197E0,-7.083661E0,-2.8783894E0,1.4322671E0,6.1811056E0,-8.3826685E0,-6.423521E0,-4.2045665E0,-1.8303517E0,2.7098703E-1,2.4103348E0,4.547072E0,7.296213E0,-9.670396E-1,-7.95757E-1,-7.163479E-1,-5.540184E-1,-5.5455226E-1,-3.7860465E-1,-2.1895099E-1,-4.7585357E-2,-4.8215967E-2,9.752729E-2,1.9631402E-1,3.9900348E-1,3.5602197E-1,4.9868676E-1,5.8804303E-1,7.876289E-1],"categories":[],"categories_nodes":[],"categories_segments":[],"categories_sizes":[],"default_left":[0,0,0,0,0,0,0,0,0,0,0,0,0,0,0,0,0,0,0,0,0,0,0,0,0,0,0,0,0,0,0],"id":9,"left_children":[1,3,5,7,9,11,13,15,17,19,21,23,25,27,29,-1,-1,-1,-1,-1,-1,-1,-1,-1,-1,-1,-1,-1,-1,-1,-1],"loss_changes":[9.529729E4,1.005123E4,1.4909109E4,8.0196875E2,1.8366807E3,1.3555046E3,2.6726797E3,1.0533594E2,3.9563086E2,3.073164E2,3.604121E2,2.9061575E2,4.4993604E2,2.4482324E2,6.7721484E2,0E0,0E0,0E0,0E0,0E0,0E0,0E0,0E0,0E0,0E0,0E0,0E0,0E0,0E0,0E0,0E0],"parents":[2147483647,0,0,1,1,2,2,3,3,4,4,5,5,6,6,7,7,8,8,9,9,10,10,11,11,12,12,13,13,14,14],"right_children":[2,4,6,8,10,12,14,16,18,20,22,24,26,28,30,-1,-1,-1,-1,-1,-1,-1,-1,-1,-1,-1,-1,-1,-1,-1,-1],"split_conditions":[1.3893541E1,6.151653E0,2.1029089E1,1.9477087E0,9.549456E0,1.7190838E1,2.4646212E1,5E0,1.3E1,5E0,1.9E1,1.2E1,1.9E1,8E0,7E0,-9.670396E-1,-7.95757E-1,-7.163479E-1,-5.540184E-1,-5.5455226E-1,-3.7860465E-1,-2.1895099E-1,-4.7585357E-2,-4.8215967E-2,9.752729E-2,1.9631402E-1,3.9900348E-1,3.5602197E-1,4.9868676E-1,5.8804303E-1,7.876289E-1],"split_indices":[2,2,2,2,2,2,2,0,0,0,0,0,0,0,0,0,0,0,0,0,0,0,0,0,0,0,0,0,0,0,0],"split_type":[0,0,0,0,0,0,0,0,0,0,0,0,0,0,0,0,0,0,0,0,0,0,0,0,0,0,0,0,0,0,0],"sum_hessian":[5E3,2.323E3,2.677E3,9.97E2,1.326E3,1.193E3,1.484E3,3.32E2,6.65E2,5.84E2,7.42E2,5.46E2,6.47E2,6.04E2,8.8E2,7.7E1,2.55E2,3.58E2,3.07E2,1.36E2,4.48E2,5.86E2,1.56E2,2.64E2,2.82E2,5.06E2,1.41E2,1.89E2,4.15E2,2.59E2,6.21E2],"tree_param":{"num_deleted":"0","num_feature":"3","num_nodes":"31","size_leaf_vector":"1"}},{"base_weights":[-2.8008095E-4,-3.5814939E0,4.3167567E0,-5.607723E0,-1.2378899E0,2.7484734E0,6.4506793E0,-6.695568E0,-4.216503E0,-2.2366726E0,-2.6203486E-1,1.7624012E0,3.828116E0,5.8647537E0,7.751614E0,-7.228544E-1,-5.593243E-1,-4.743072E-1,-3.092801E-1,-2.9397553E-1,-1.675446E-1,-1.2096446E-1,2.9041115E-2,6.9611914E-2,2.3273098E-1,3.2239565E-1,4.5636392E-1,4.7439447E-1,6.325426E-1,6.7878646E-1,8.715076E-1],"categories":[],"categories_nodes":[],"categories_segments":[],"categories_sizes":[],"default_left":[0,0,0,0,0,0,0,0,0,0,0,0,0,0,0,0,0,0,0,0,0,0,0,0,0,0,0,0,0,0,0],"id":10,"left_children":[1,3,5,7,9,11,13,15,17,19,21,23,25,27,29,-1,-1,-1,-1,-1,-1,-1,-1,-1,-1,-1,-1,-1,-1,-1,-1],"loss_changes":[7.733208E4,1.2975945E4,7.5723477E3,2.190457E3,1.2362667E3,1.3868223E3,6.863008E2,4.4191797E2,3.6757227E2,2.4248169E2,3.369638E2,4.1159326E2,2.625752E2,3.1386328E2,2.1476172E2,0E0,0E0,0E0,0E0,0E0,0E0,0E0,0E0,0E0,0E0,0E0,0E0,0E0,0E0,0E0,0E0],"parents":[2147483647,0,0,1,1,2,2,3,3,4,4,5,5,6,6,7,7,8,8,9,9,10,10,11,11,12,12,13,13,14,14],"right_children":[2,4,6,8,10,12,14,16,18,20,22,24,26,28,30,-1,-1,-1,-1,-1,-1,-1,-1,-1,-1,-1,-1,-1,-1,-1,-1],"split_conditions":[1.6400385E1,8.919531E0,2.4120684E1,4.887498E0,1.2592409E1,2.045027E1,2.8209354E1,1.6E1,1.6E1,1E1,9E0,8E0,1.3E1,7E0,1.2E1,-7.228544E-1,-5.593243E-1,-4.743072E-1,-3.092801E-1,-2.9397553E-1,-1.675446E-1,-1.2096446E-1,2.9041115E-2,6.9611914E-2,2.3273098E-1,3.2239565E-1,4.5636392E-1,4.7439447E-1,6.325426E-1,6.7878646E-1,8.715076E-1],"split_indices":[2,2,2,2,2,2,2,0,0,0,0,0,0,0,0,0,0,0,0,0,0,0,0,0,0,0,0,0,0,0,0],"split_type":[0,0,0,0,0,0,0,0,0,0,0,0,0,0,0,0,0,0,0,0,0,0,0,0,0,0,0,0,0,0,0],"sum_hessian":[5E3,2.733E3,2.267E3,1.465E3,1.268E3,1.308E3,9.59E2,8.2E2,6.45E2,6.26E2,6.42E2,6.85E2,6.23E2,6.65E2,2.94E2,5.49E2,2.71E2,4.37E2,2.08E2,2.76E2,3.5E2,2.36E2,4.06E2,2.38E2,4.47E2,3.45E2,2.78E2,1.97E2,4.68E2,1.51E2,1.43E2],"tree_param":{"num_deleted":"0","num_feature":"3","num_nodes":"31","size_leaf_vector":"1"}},{"base_weights":[-2.8133392E-5,-3.7165353E0,3.3788726E0,-5.4509306E0,-1.9804771E0,1.7617861E0,5.559997E0,-6.406435E0,-4.5148454E0,-2.736744E0,-9.568092E-1,7.034019E-1,2.9009511E0,4.812591E0,6.645655E0,-6.933114E-1,-5.278174E-1,-5.6154984E-1,-4.071796E-1,-3.127401E-1,-1.760091E-1,-2.142771E-1,-6.424946E-2,9.552953E-4,1.2952885E-1,2.561692E-1,4.1320226E-1,4.13982E-1,5.5272186E-1,6.0116047E-1,7.5878924E-1],"categories":[],"categories_nodes":[],"categories_segments":[],"categories_sizes":[],"default_left":[0,0,0,0,0,0,0,0,0,0,0,0,0,0,0,0,0,0,0,0,0,0,0,0,0,0,0,0,0,0,0],"id":11,"left_children":[1,3,5,7,9,11,13,15,17,19,21,23,25,27,29,-1,-1,-1,-1,-1,-1,-1,-1,-1,-1,-1,-1,-1,-1,-1,-1],"loss_changes":[6.2813664E4,7.1614375E3,9.231119E3,1.0363477E3,9.201875E2,1.8137041E3,8.727578E2,3.1221875E2,2.7215918E2,2.5584766E2,1.8798792E2,3.2113928E2,2.9221338E2,2.9635547E2,2.2442188E2,0E0,0E0,0E0,0E0,0E0,0E0,0E0,0E0,0E0,0E0,0E0,0E0,0E0,0E0,0E0,0E0],"parents":[2147483647,0,0,1,1,2,2,3,3,4,4,5,5,6,6,7,7,8,8,9,9,10,10,11,11,12,12,13,13,14,14],"right_children":[2,4,6,8,10,12,14,16,18,20,22,24,26,28,30,-1,-1,-1,-1,-1,-1,-1,-1,-1,-1,-1,-1,-1,-1,-1,-1],"split_conditions":[1.425278E1,7.475235E0,2.3254827E1,3.513217E0,1.1344548E1,1.9011961E1,2.7209229E1,1.6E1,7E0,1.7E1,5E0,1.1E1,1.9E1,1.3E1,1.4E1,-6.933114E-1,-5.278174E-1,-5.6154984E-1,-4.071796E-1,-3.127401E-1,-1.760091E-1,-2.142771E-1,-6.424946E-2,9.552953E-4,1.2952885E-1,2.561692E-1,4.1320226E-1,4.13982E-1,5.5272186E-1,6.0116047E-1,7.5878924E-1],"split_indices":[2,2,2,2,2,2,2,0,0,0,0,0,0,0,0,0,0,0,0,0,0,0,0,0,0,0,0,0,0,0,0],"split_type":[0,0,0,0,0,0,0,0,0,0,0,0,0,0,0,0,0,0,0,0,0,0,0,0,0,0,0,0,0,0,0],"sum_hessian":[5E3,2.381E3,2.619E3,1.19E3,1.191E3,1.505E3,1.114E3,5.86E2,6.04E2,6.84E2,5.07E2,7.81E2,7.24E2,6.63E2,4.51E2,3.96E2,1.9E2,1.7E2,4.34E2,4.87E2,1.97E2,1.05E2,4.02E2,3.6E2,4.21E2,5.7E2,1.54E2,3.45E2,3.18E2,2.74E2,1.77E2],"tree_param":{"num_deleted":"0","num_feature":"3","num_nodes":"31","size_leaf_vector":"1"}},{"base_weights":[8.559327E-6,-2.8893511E0,3.5368726E0,-4.465026E0,-8.7931377E-1,2.265422E0,5.2417E0,-5.348923E0,-3.2228324E0,-1.5704207E0,-8.63483E-2,1.4697292E0,3.112316E0,4.8362556E0,6.607641E0,-6.5978235E-1,-4.947301E-1,-4.3563762E-1,-2.8993157E-1,-1.9094373E-1,-7.262652E-2,-7.0361614E-2,4.769918E-2,1.065889E-1,2.5647467E-1,2.0321743E-1,3.4292144E-1,3.8055372E-1,5.247974E-1,5.431521E-1,7.2547805E-1],"categories":[],"categories_nodes":[],"categories_segments":[],"categories_sizes":[],"default_left":[0,0,0,0,0,0,0,0,0,0,0,0,0,0,0,0,0,0,0,0,0,0,0,0,0,0,0,0,0,0,0],"id":12,"left_children":[1,3,5,7,9,11,13,15,17,19,21,23,25,27,29,-1,-1,-1,-1,-1,-1,-1,-1,-1,-1,-1,-1,-1,-1,-1,-1],"loss_changes":[5.1116805E4,8.715277E3,4.8630684E3,1.6769336E3,6.6352136E2,8.6471436E2,4.9970508E2,4.1878516E2,2.235376E2,1.8377344E2,1.9680403E2,2.9222168E2,2.0662305E2,2.9575586E2,1.25756836E2,0E0,0E0,0E0,0E0,0E0,0E0,0E0,0E0,0E0,0E0,0E0,0E0,0E0,0E0,0E0,0E0],"parents":[2147483647,0,0,1,1,2,2,3,3,4,4,5,5,6,6,7,7,8,8,9,9,10,10,11,11,12,12,13,13,14,14],"right_children":[2,4,6,8,10,12,14,16,18,20,22,24,26,28,30,-1,-1,-1,-1,-1,-1,-1,-1,-1,-1,-1,-1,-1,-1,-1,-1],"split_conditions":[1.6584911E1,9.340178E0,2.4120684E1,5.390793E0,1.3063966E1,2.045027E1,2.8697126E1,1.2449791E0,5E0,1.7E1,1.2E1,1.8E1,6E0,7E0,8E0,-6.5978235E-1,-4.947301E-1,-4.3563762E-1,-2.8993157E-1,-1.9094373E-1,-7.262652E-2,-7.0361614E-2,4.769918E-2,1.065889E-1,2.5647467E-1,2.0321743E-1,3.4292144E-1,3.8055372E-1,5.247974E-1,5.431521E-1,7.2547805E-1],"split_indices":[2,2,2,2,2,2,2,2,0,0,0,0,0,0,0,0,0,0,0,0,0,0,0,0,0,0,0,0,0,0,0],"split_type":[0,0,0,0,0,0,0,0,0,0,0,0,0,0,0,0,0,0,0,0,0,0,0,0,0,0,0,0,0,0,0],"sum_hessian":[5E3,2.752E3,2.248E3,1.542E3,1.21E3,1.289E3,9.59E2,8.99E2,6.43E2,6.46E2,5.64E2,6.66E2,6.23E2,7.43E2,2.16E2,2.15E2,6.84E2,1.4E2,5.03E2,4.6E2,1.86E2,2.69E2,2.95E2,4.88E2,1.78E2,1.43E2,4.8E2,2.15E2,5.28E2,8E1,1.36E2],"tree_param":{"num_deleted":"0","num_feature":"3","num_nodes":"31","size_leaf_vector":"1"}},{"base_weights":[1.9131592E-4,-2.6823163E0,3.0888245E0,-4.236932E0,-1.1022869E0,1.9203652E0,4.6933455E0,-5.1316752E0,-3.409885E0,-1.8802166E0,-3.2736984E-1,1.1695362E0,2.733309E0,4.3891635E0,6.234477E0,-5.8568114E-1,-4.4780478E-1,-3.8116422E-1,-2.5707385E-1,-2.6422283E-1,-1.4906275E-1,-1.3535535E-1,-6.4421813E-3,3.1498387E-2,1.6356464E-1,1.9873734E-1,3.085513E-1,3.598128E-1,4.8330078E-1,5.0776285E-1,6.8843085E-1],"categories":[],"categories_nodes":[],"categories_segments":[],"categories_sizes":[],"default_left":[0,0,0,0,0,0,0,0,0,0,0,0,0,0,0,0,0,0,0,0,0,0,0,0,0,0,0,0,0,0,0],"id":13,"left_children":[1,3,5,7,9,11,13,15,17,19,21,23,25,27,29,-1,-1,-1,-1,-1,-1,-1,-1,-1,-1,-1,-1,-1,-1,-1,-1],"loss_changes":[4.144298E4,6.570949E3,4.3499395E3,9.807539E2,8.00547E2,8.189878E2,4.3157227E2,2.7995508E2,2.2754346E2,1.928872E2,1.7989139E2,2.7910223E2,1.6358594E2,2.7086133E2,8.457324E1,0E0,0E0,0E0,0E0,0E0,0E0,0E0,0E0,0E0,0E0,0E0,0E0,0E0,0E0,0E0,0E0],"parents":[2147483647,0,0,1,1,2,2,3,3,4,4,5,5,6,6,7,7,8,8,9,9,10,10,11,11,12,12,13,13,14,14],"right_children":[2,4,6,8,10,12,14,16,18,20,22,24,26,28,30,-1,-1,-1,-1,-1,-1,-1,-1,-1,-1,-1,-1,-1,-1,-1,-1],"split_conditions":[1.606375E1,8.251634E0,2.4041168E1,3.8405313E0,1.2110378E1,2.0194822E1,2.8989555E1,1.1E1,1.6E1,7E0,5E0,8E0,8E0,9E0,8E0,-5.8568114E-1,-4.4780478E-1,-3.8116422E-1,-2.5707385E-1,-2.6422283E-1,-1.4906275E-1,-1.3535535E-1,-6.4421813E-3,3.1498387E-2,1.6356464E-1,1.9873734E-1,3.085513E-1,3.598128E-1,4.8330078E-1,5.0776285E-1,6.8843085E-1],"split_indices":[2,2,2,2,2,2,2,0,0,0,0,0,0,0,0,0,0,0,0,0,0,0,0,0,0,0,0,0,0,0,0],"split_type":[0,0,0,0,0,0,0,0,0,0,0,0,0,0,0,0,0,0,0,0,0,0,0,0,0,0,0,0,0,0,0],"sum_hessian":[5E3,2.676E3,2.324E3,1.348E3,1.328E3,1.346E3,9.78E2,6.45E2,7.03E2,6.62E2,6.66E2,7.01E2,6.45E2,8.2E2,1.58E2,3.02E2,3.43E2,4.73E2,2.3E2,2.22E2,4.4E2,1.35E2,5.31E2,2.48E2,4.53E2,2.09E2,4.36E2,2.98E2,5.22E2,6E1,9.8E1],"tree_param":{"num_deleted":"0","num_feature":"3","num_nodes":"31","size_leaf_vector":"1"}},{"base_weights":[2.7531688E-4,-2.3444047E0,2.870397E0,-3.6265857E0,-7.087734E-1,1.8399352E0,4.2520905E0,-4.4523034E0,-2.729211E0,-1.3069174E0,-1.0549461E-1,1.2309126E0,2.5717814E0,3.7440548E0,5.041562E0,-5.8928776E-1,-4.195168E-1,-3.973844E-1,-2.4608074E-1,-1.8150553E-1,-9.19485E-2,-7.90361E-2,2.8334279E-2,8.492484E-2,2.0757584E-1,1.6391364E-1,2.8479323E-1,3.32432E-1,4.500551E-1,4.6582684E-1,6.324657E-1],"categories":[],"categories_nodes":[],"categories_segments":[],"categories_sizes":[],"default_left":[0,0,0,0,0,0,0,0,0,0,0,0,0,0,0,0,0,0,0,0,0,0,0,0,0,0,0,0,0,0,0],"id":14,"left_children":[1,3,5,7,9,11,13,15,17,19,21,23,25,27,29,-1,-1,-1,-1,-1,-1,-1,-1,-1,-1,-1,-1,-1,-1,-1,-1],"loss_changes":[3.3661047E4,5.770955E3,3.1942637E3,1.1311777E3,4.368485E2,5.7180176E2,3.6616016E2,2.723584E2,2.3809619E2,1.18027466E2,1.6107014E2,2.2588501E2,1.4599878E2,1.7174414E2,1.5398047E2,0E0,0E0,0E0,0E0,0E0,0E0,0E0,0E0,0E0,0E0,0E0,0E0,0E0,0E0,0E0,0E0],"parents":[2147483647,0,0,1,1,2,2,3,3,4,4,5,5,6,6,7,7,8,8,9,9,10,10,11,11,12,12,13,13,14,14],"right_children":[2,4,6,8,10,12,14,16,18,20,22,24,26,28,30,-1,-1,-1,-1,-1,-1,-1,-1,-1,-1,-1,-1,-1,-1,-1,-1],"split_conditions":[1.6584911E1,9.340178E0,2.4120684E1,4.802884E0,1.2879635E1,2.065882E1,2.773901E1,6.357674E-1,4E0,1E1,9E0,1.7E1,6E0,1.6E1,1.9E1,-5.8928776E-1,-4.195168E-1,-3.973844E-1,-2.4608074E-1,-1.8150553E-1,-9.19485E-2,-7.90361E-2,2.8334279E-2,8.492484E-2,2.0757584E-1,1.6391364E-1,2.8479323E-1,3.32432E-1,4.500551E-1,4.6582684E-1,6.324657E-1],"split_indices":[2,2,2,2,2,2,2,2,0,0,0,0,0,0,0,0,0,0,0,0,0,0,0,0,0,0,0,0,0,0,0],"split_type":[0,0,0,0,0,0,0,0,0,0,0,0,0,0,0,0,0,0,0,0,0,0,0,0,0,0,0,0,0,0,0],"sum_hessian":[5E3,2.752E3,2.248E3,1.542E3,1.21E3,1.289E3,9.59E2,8.01E2,7.41E2,6.07E2,6.03E2,7.05E2,5.84E2,5.87E2,3.72E2,1.18E2,6.83E2,1.29E2,6.12E2,2.61E2,3.46E2,2.18E2,3.85E2,4.87E2,2.18E2,1.35E2,4.49E2,3.81E2,2.06E2,2.9E2,8.2E1],"tree_param":{"num_deleted":"0","num_feature":"3","num_nodes":"31","size_leaf_vector":"1"}},{"base_weights":[3.767149E-4,-2.3179846E0,2.3561158E0,-3.6055422E0,-1.1641161E0,1.2826794E0,3.6700451E0,-4.636923E0,-3.2015195E0,-1.7924713E0,-4.970568E-1,4.853082E-1,1.8767785E0,3.0342014E0,4.320051E0,-5.6596583E-1,-4.3071947E-1,-4.040413E-1,-2.777957E-1,-2.0564155E-1,-9.6797384E-2,-8.388935E-2,1.1803416E-2,2.9358083E-2,1.7463982E-1,1.6036098E-1,2.8902006E-1,2.673802E-1,3.8067946E-1,4.135092E-1,6.083244E-1],"categories":[],"categories_nodes":[],"categories_segments":[],"categories_sizes":[],"default_left":[0,0,0,0,0,0,0,0,0,0,0,0,0,0,0,0,0,0,0,0,0,0,0,0,0,0,0,0,0,0,0],"id":15,"left_children":[1,3,5,7,9,11,13,15,17,19,21,23,25,27,29,-1,-1,-1,-1,-1,-1,-1,-1,-1,-1,-1,-1,-1,-1,-1,-1],"loss_changes":[2.7318195E4,3.7411807E3,3.494543E3,4.8144727E2,5.5699805E2,6.4666064E2,4.477246E2,8.791797E1,2.9399902E2,1.4708008E2,1.3613765E2,1.4093181E2,2.121272E2,1.4769824E2,1.5388477E2,0E0,0E0,0E0,0E0,0E0,0E0,0E0,0E0,0E0,0E0,0E0,0E0,0E0,0E0,0E0,0E0],"parents":[2147483647,0,0,1,1,2,2,3,3,4,4,5,5,6,6,7,7,8,8,9,9,10,10,11,11,12,12,13,13,14,14],"right_children":[2,4,6,8,10,12,14,16,18,20,22,24,26,28,30,-1,-1,-1,-1,-1,-1,-1,-1,-1,-1,-1,-1,-1,-1,-1,-1],"split_conditions":[1.5157661E1,7.475235E0,2.3254827E1,1.9477087E0,1.1344548E1,1.8676764E1,2.6609612E1,5E0,8E0,1.8E1,1.6E1,2.1E1,1.9E1,1.7E1,2.2E1,-5.6596583E-1,-4.3071947E-1,-4.040413E-1,-2.777957E-1,-2.0564155E-1,-9.6797384E-2,-8.388935E-2,1.1803416E-2,2.9358083E-2,1.7463982E-1,1.6036098E-1,2.8902006E-1,2.673802E-1,3.8067946E-1,4.135092E-1,6.083244E-1],"split_indices":[2,2,2,2,2,2,2,0,0,0,0,0,0,0,0,0,0,0,0,0,0,0,0,0,0,0,0,0,0,0,0],"split_type":[0,0,0,0,0,0,0,0,0,0,0,0,0,0,0,0,0,0,0,0,0,0,0,0,0,0,0,0,0,0,0],"sum_hessian":[5E3,2.52E3,2.48E3,1.19E3,1.33E3,1.366E3,1.114E3,3.32E2,8.58E2,6.84E2,6.46E2,5.84E2,7.82E2,5.66E2,5.48E2,7.7E1,2.55E2,2.85E2,5.73E2,5.17E2,1.67E2,4.15E2,2.31E2,5.08E2,7.6E1,6.18E2,1.64E2,3.89E2,1.77E2,4.99E2,4.9E1],"tree_param":{"num_deleted":"0","num_feature":"3","num_nodes":"31","size_leaf_vector":"1"}},{"base_weights":[3.929891E-4,-2.3318183E0,1.9041007E0,-3.518206E0,-1.4796431E0,6.299547E-1,2.992492E0,-3.8423772E0,-2.6240401E0,-2.0476413E0,-9.615783E-1,5.8808733E-2,1.1780936E0,2.3217688E0,3.7312756E0,-4.2261225E-1,-3.2591227E-1,-4.1574746E-1,-2.3587754E-1,-3.1874833E-1,-1.8520647E-1,-1.1818725E-1,-1.2267846E-2,-6.3062504E-2,3.3817645E-2,5.4973822E-2,1.6283177E-1,2.0896737E-1,3.388055E-1,3.3921313E-1,4.5419097E-1],"categories":[],"categories_nodes":[],"categories_segments":[],"categories_sizes":[],"default_left":[0,0,0,0,0,0,0,0,0,0,0,0,0,0,0,0,0,0,0,0,0,0,0,0,0,0,0,0,0,0,0],"id":16,"left_children":[1,3,5,7,9,11,13,15,17,19,21,23,25,27,29,-1,-1,-1,-1,-1,-1,-1,-1,-1,-1,-1,-1,-1,-1,-1,-1],"loss_changes":[2.2208123E4,2.267545E3,3.8172783E3,2.6209766E2,3.83511E2,3.9752615E2,7.271836E2,1.3999219E2,9.3105225E1,1.3320264E2,1.2681586E2,1.20206505E2,1.8242462E2,1.8620166E2,1.7841309E2,0E0,0E0,0E0,0E0,0E0,0E0,0E0,0E0,0E0,0E0,0E0,0E0,0E0,0E0,0E0,0E0],"parents":[2147483647,0,0,1,1,2,2,3,3,4,4,5,5,6,6,7,7,8,8,9,9,10,10,11,11,12,12,13,13,14,14],"right_children":[2,4,6,8,10,12,14,16,18,20,22,24,26,28,30,-1,-1,-1,-1,-1,-1,-1,-1,-1,-1,-1,-1,-1,-1,-1,-1],"split_conditions":[1.3442255E1,5.6660814E0,2.1029089E1,1.7E1,9.495212E0,1.7190838E1,2.5524078E1,3.4076195E0,9.113874E-1,3E0,1.9E1,7E0,1E1,2E1,1.7E1,-4.2261225E-1,-3.2591227E-1,-4.1574746E-1,-2.3587754E-1,-3.1874833E-1,-1.8520647E-1,-1.1818725E-1,-1.2267846E-2,-6.3062504E-2,3.3817645E-2,5.4973822E-2,1.6283177E-1,2.0896737E-1,3.388055E-1,3.3921313E-1,4.5419097E-1],"split_indices":[2,2,2,0,2,2,2,2,2,0,0,0,0,0,0,0,0,0,0,0,0,0,0,0,0,0,0,0,0,0,0],"split_type":[0,0,0,0,0,0,0,0,0,0,0,0,0,0,0,0,0,0,0,0,0,0,0,0,0,0,0,0,0,0,0],"sum_hessian":[5E3,2.247E3,2.753E3,9.38E2,1.309E3,1.269E3,1.484E3,6.86E2,2.52E2,6.23E2,6.86E2,6.22E2,6.47E2,7.8E2,7.04E2,4.1E2,2.76E2,3.5E1,2.17E2,8.9E1,5.34E2,5.43E2,1.43E2,1.79E2,4.43E2,2.71E2,3.76E2,6.43E2,1.37E2,5E2,2.04E2],"tree_param":{"num_deleted":"0","num_feature":"3","num_nodes":"31","size_leaf_vector":"1"}},{"base_weights":[2.525437E-4,-1.7012995E0,2.1170778E0,-2.7115607E0,-5.677032E-1,1.3952206E0,3.1794877E0,-3.3750994E0,-2.1268604E0,-1.1159805E0,-1.4927432E-1,9.12118E-1,1.9076635E0,2.9319146E0,4.316389E0,-3.9335042E-1,-2.8747627E-1,-2.4277186E-1,-1.3373569E-1,-1.2316827E-1,2.5096396E-2,-8.592223E-2,1.1022828E-2,6.026284E-2,1.5965591E-1,1.1214223E-1,2.135916E-1,2.1576905E-1,3.2513753E-1,3.379614E-1,4.849994E-1],"categories":[],"categories_nodes":[],"categories_segments":[],"categories_sizes":[],"default_left":[0,0,0,0,0,0,0,0,0,0,0,0,0,0,0,0,0,0,0,0,0,0,0,0,0,0,0,0,0,0,0],"id":17,"left_children":[1,3,5,7,9,11,13,15,17,19,21,23,25,27,29,-1,-1,-1,-1,-1,-1,-1,-1,-1,-1,-1,-1,-1,-1,-1,-1],"loss_changes":[1.8016646E4,3.1741792E3,1.705002E3,5.615879E2,2.9990833E2,3.2727075E2,2.4094629E2,1.800752E2,1.8250049E2,8.982678E1,1.3698006E2,1.443515E2,1.1317798E2,1.7675342E2,6.308789E1,0E0,0E0,0E0,0E0,0E0,0E0,0E0,0E0,0E0,0E0,0E0,0E0,0E0,0E0,0E0,0E0],"parents":[2147483647,0,0,1,1,2,2,3,3,4,4,5,5,6,6,7,7,8,8,9,9,10,10,11,11,12,12,13,13,14,14],"right_children":[2,4,6,8,10,12,14,16,18,20,22,24,26,28,30,-1,-1,-1,-1,-1,-1,-1,-1,-1,-1,-1,-1,-1,-1,-1,-1],"split_conditions":[1.6692574E1,8.919531E0,2.4503027E1,4.0875607E0,1.2239744E1,2.065882E1,2.8989555E1,1.1E1,1.7E1,2.2E1,7E0,1.7E1,6E0,7E0,8E0,-3.9335042E-1,-2.8747627E-1,-2.4277186E-1,-1.3373569E-1,-1.2316827E-1,2.5096396E-2,-8.592223E-2,1.1022828E-2,6.026284E-2,1.5965591E-1,1.1214223E-1,2.135916E-1,2.1576905E-1,3.2513753E-1,3.379614E-1,4.849994E-1],"split_indices":[2,2,2,2,2,2,2,0,0,0,0,0,0,0,0,0,0,0,0,0,0,0,0,0,0,0,0,0,0,0,0],"split_type":[0,0,0,0,0,0,0,0,0,0,0,0,0,0,0,0,0,0,0,0,0,0,0,0,0,0,0,0,0,0,0],"sum_hessian":[5E3,2.772E3,2.228E3,1.465E3,1.307E3,1.328E3,9E2,6.84E2,7.81E2,5.65E2,7.42E2,6.85E2,6.43E2,7.42E2,1.58E2,3.2E2,3.64E2,5.64E2,2.17E2,5.21E2,4.4E1,1.98E2,5.44E2,4.73E2,2.12E2,1.46E2,4.97E2,2.19E2,5.23E2,6E1,9.8E1],"tree_param":{"num_deleted":"0","num_feature":"3","num_nodes":"31","size_leaf_vector":"1"}},{"base_weights":[3.6299913E-4,-1.8939052E0,1.5465919E0,-2.8641496E0,-1.1969942E0,6.329974E-1,2.5516903E0,-3.6622303E0,-2.570839E0,-1.648813E0,-7.848662E-1,1.3622862E-1,1.1862987E0,2.1296806E0,3.2521343E0,-5.104366E-1,-3.419397E-1,-3.3031058E-1,-2.2736172E-1,-2.6547936E-1,-1.4765008E-1,-1.02430776E-1,-2.1293206E-2,-5.7300568E-2,3.377848E-2,6.0462486E-2,1.5865026E-1,1.9228779E-1,3.0570826E-1,3.0836764E-1,4.853215E-1],"categories":[],"categories_nodes":[],"categories_segments":[],"categories_sizes":[],"default_left":[0,0,0,0,0,0,0,0,0,0,0,0,0,0,0,0,0,0,0,0,0,0,0,0,0,0,0,0,0,0,0],"id":18,"left_children":[1,3,5,7,9,11,13,15,17,19,21,23,25,27,29,-1,-1,-1,-1,-1,-1,-1,-1,-1,-1,-1,-1,-1,-1,-1,-1],"loss_changes":[1.4650718E4,1.5166104E3,2.5272515E3,2.103916E2,2.426372E2,3.9674023E2,3.8059766E2,7.00957E1,1.4266553E2,1.0424609E2,9.3862976E1,1.09121864E2,1.5803522E2,1.5158081E2,1.17464355E2,0E0,0E0,0E0,0E0,0E0,0E0,0E0,0E0,0E0,0E0,0E0,0E0,0E0,0E0,0E0,0E0],"parents":[2147483647,0,0,1,1,2,2,3,3,4,4,5,5,6,6,7,7,8,8,9,9,10,10,11,11,12,12,13,13,14,14],"right_children":[2,4,6,8,10,12,14,16,18,20,22,24,26,28,30,-1,-1,-1,-1,-1,-1,-1,-1,-1,-1,-1,-1,-1,-1,-1,-1],"split_conditions":[1.3442255E1,5.6660814E0,2.202013E1,6E0,9.495212E0,1.8007591E1,2.6943527E1,6.357674E-1,1.599902E0,3E0,1.7E1,5E0,1E1,2E1,2.2E1,-5.104366E-1,-3.419397E-1,-3.3031058E-1,-2.2736172E-1,-2.6547936E-1,-1.4765008E-1,-1.02430776E-1,-2.1293206E-2,-5.7300568E-2,3.377848E-2,6.0462486E-2,1.5865026E-1,1.9228779E-1,3.0570826E-1,3.0836764E-1,4.853215E-1],"split_indices":[2,2,2,0,2,2,2,2,2,0,0,0,0,0,0,0,0,0,0,0,0,0,0,0,0,0,0,0,0,0,0],"split_type":[0,0,0,0,0,0,0,0,0,0,0,0,0,0,0,0,0,0,0,0,0,0,0,0,0,0,0,0,0,0,0],"sum_hessian":[5E3,2.247E3,2.753E3,9.38E2,1.309E3,1.443E3,1.31E3,2.49E2,6.89E2,6.23E2,6.86E2,7.61E2,6.82E2,8.2E2,4.9E2,3.3E1,2.16E2,1.96E2,4.93E2,8.9E1,5.34E2,4.83E2,2.03E2,1.68E2,5.93E2,2.79E2,4.03E2,6.73E2,1.47E2,4.46E2,4.4E1],"tree_param":{"num_deleted":"0","num_feature":"3","num_nodes":"31","size_leaf_vector":"1"}},{"base_weights":[2.3460198E-4,-1.5924684E0,1.4942036E0,-2.531601E0,-9.3316597E-1,6.8641984E-1,2.3249445E0,-3.207737E0,-2.2364025E0,-1.3516057E0,-4.5083684E-1,1.953678E-1,1.0860642E0,1.8605201E0,2.8290844E0,-4.608942E-1,-3.018003E-1,-3.2307684E-1,-2.0408396E-1,-1.7825046E-1,-1.0648363E-1,-5.7350863E-2,1.0324698E-1,-4.7063484E-4,7.809495E-2,7.179073E-2,1.6351786E-1,1.6664706E-1,2.745932E-1,2.4448071E-1,3.3733046E-1],"categories":[],"categories_nodes":[],"categories_segments":[],"categories_sizes":[],"default_left":[0,0,0,0,0,0,0,0,0,0,0,0,0,0,0,0,0,0,0,0,0,0,0,0,0,0,0,0,0,0,0],"id":19,"left_children":[1,3,5,7,9,11,13,15,17,19,21,23,25,27,29,-1,-1,-1,-1,-1,-1,-1,-1,-1,-1,-1,-1,-1,-1,-1,-1],"loss_changes":[1.1902003E4,1.4966538E3,1.7304067E3,1.92021E2,2.8679053E2,2.568703E2,2.9255615E2,6.611279E1,1.2914038E2,9.226123E1,1.2123152E2,6.9010765E1,1.4478583E2,1.09680176E2,1.18904785E2,0E0,0E0,0E0,0E0,0E0,0E0,0E0,0E0,0E0,0E0,0E0,0E0,0E0,0E0,0E0,0E0],"parents":[2147483647,0,0,1,1,2,2,3,3,4,4,5,5,6,6,7,7,8,8,9,9,10,10,11,11,12,12,13,13,14,14],"right_children":[2,4,6,8,10,12,14,16,18,20,22,24,26,28,30,-1,-1,-1,-1,-1,-1,-1,-1,-1,-1,-1,-1,-1,-1,-1,-1],"split_conditions":[1.4501762E1,6.151653E0,2.2254982E1,7E0,1.0620589E1,1.8007591E1,2.6210182E1,6.357674E-1,9.113874E-1,9E0,2.2E1,1.8E1,1.5E1,2E1,1.4E1,-4.608942E-1,-3.018003E-1,-3.2307684E-1,-2.0408396E-1,-1.7825046E-1,-1.0648363E-1,-5.7350863E-2,1.0324698E-1,-4.7063484E-4,7.809495E-2,7.179073E-2,1.6351786E-1,1.6664706E-1,2.745932E-1,2.4448071E-1,3.3733046E-1],"split_indices":[2,2,2,0,2,2,2,2,2,0,0,0,0,0,0,0,0,0,0,0,0,0,0,0,0,0,0,0,0,0,0],"split_type":[0,0,0,0,0,0,0,0,0,0,0,0,0,0,0,0,0,0,0,0,0,0,0,0,0,0,0,0,0,0,0],"sum_hessian":[5E3,2.42E3,2.58E3,9.97E2,1.423E3,1.309E3,1.271E3,3E2,6.97E2,7.61E2,6.62E2,5.88E2,7.21E2,6.64E2,6.07E2,3.3E1,2.67E2,1.12E2,5.85E2,3.02E2,4.59E2,6.12E2,5E1,4.39E2,1.49E2,4.33E2,2.88E2,5.47E2,1.17E2,3.59E2,2.48E2],"tree_param":{"num_deleted":"0","num_feature":"3","num_nodes":"31","size_leaf_vector":"1"}},{"base_weights":[1.7249883E-4,-1.5381151E0,1.2558262E0,-2.3563433E0,-9.9108505E-1,3.9015642E-1,1.9542408E0,-2.6198592E0,-1.660723E0,-1.3587831E0,-6.3478965E-1,3.681375E-2,7.509813E-1,1.4735879E0,2.4561703E0,-3.5069206E-1,-2.4731414E-1,-2.8385472E-1,-1.4557816E-1,-1.5349151E-1,-5.3228457E-2,-7.249856E-2,4.578372E-2,-1.6759971E-2,6.293827E-2,2.2354005E-2,1.0300429E-1,9.665918E-2,1.7062873E-1,2.2269607E-1,3.2854828E-1],"categories":[],"categories_nodes":[],"categories_segments":[],"categories_sizes":[],"default_left":[0,0,0,0,0,0,0,0,0,0,0,0,0,0,0,0,0,0,0,0,0,0,0,0,0,0,0,0,0,0,0],"id":20,"left_children":[1,3,5,7,9,11,13,15,17,19,21,23,25,27,29,-1,-1,-1,-1,-1,-1,-1,-1,-1,-1,-1,-1,-1,-1,-1,-1],"loss_changes":[9.661646E3,1.0038594E3,1.6642959E3,1.60625E2,1.758689E2,1.5691849E2,3.6405127E2,7.605322E1,5.621393E1,9.5697754E1,6.803613E1,7.55689E1,8.940759E1,9.049121E1,1.3410791E2,0E0,0E0,0E0,0E0,0E0,0E0,0E0,0E0,0E0,0E0,0E0,0E0,0E0,0E0,0E0,0E0],"parents":[2147483647,0,0,1,1,2,2,3,3,4,4,5,5,6,6,7,7,8,8,9,9,10,10,11,11,12,12,13,13,14,14],"right_children":[2,4,6,8,10,12,14,16,18,20,22,24,26,28,30,-1,-1,-1,-1,-1,-1,-1,-1,-1,-1,-1,-1,-1,-1,-1,-1],"split_conditions":[1.3442255E1,5.390793E0,2.0781221E1,1.7E1,9.495212E0,1.7190838E1,2.5330965E1,6.357674E-1,9.113874E-1,2E1,2.2E1,1.8E1,8E0,8E0,2.8989555E1,-3.5069206E-1,-2.4731414E-1,-2.8385472E-1,-1.4557816E-1,-1.5349151E-1,-5.3228457E-2,-7.249856E-2,4.578372E-2,-1.6759971E-2,6.293827E-2,2.2354005E-2,1.0300429E-1,9.665918E-2,1.7062873E-1,2.2269607E-1,3.2854828E-1],"split_indices":[2,2,2,0,2,2,2,2,2,0,0,0,0,0,2,0,0,0,0,0,0,0,0,0,0,0,0,0,0,0,0],"split_type":[0,0,0,0,0,0,0,0,0,0,0,0,0,0,0,0,0,0,0,0,0,0,0,0,0,0,0,0,0,0,0],"sum_hessian":[5E3,2.247E3,2.753E3,8.99E2,1.348E3,1.23E3,1.523E3,6.5E2,2.49E2,6.62E2,6.86E2,6.22E2,6.08E2,7.8E2,7.43E2,8.9E1,5.61E2,3.5E1,2.14E2,5.45E2,1.17E2,6.34E2,5.2E1,4.63E2,1.59E2,2.11E2,3.97E2,2.47E2,5.33E2,5.85E2,1.58E2],"tree_param":{"num_deleted":"0","num_feature":"3","num_nodes":"31","size_leaf_vector":"1"}},{"base_weights":[1.0135478E-4,-1.1312985E0,1.3850476E0,-1.9417756E0,-5.129944E-1,8.98249E-1,2.1123574E0,-2.600641E0,-1.7120299E0,-9.563473E-1,-1.669083E-1,1.1422587E-1,1.0492682E0,1.4588578E0,2.3896728E0,-3.821226E-1,-2.4391007E-1,-2.4308601E-1,-1.5043175E-1,-1.3521175E-1,-6.8759374E-2,-8.329507E-2,1.0240074E-4,-5.466683E-2,4.1546743E-2,7.346251E-2,1.3576548E-1,1.335057E-1,2.8691027E-1,2.2194289E-1,3.5182494E-1],"categories":[],"categories_nodes":[],"categories_segments":[],"categories_sizes":[],"default_left":[0,0,0,0,0,0,0,0,0,0,0,0,0,0,0,0,0,0,0,0,0,0,0,0,0,0,0,0,0,0,0],"id":21,"left_children":[1,3,5,7,9,11,13,15,17,19,21,23,25,27,29,-1,-1,-1,-1,-1,-1,-1,-1,-1,-1,-1,-1,-1,-1,-1,-1],"loss_changes":[7.837774E3,1.3785913E3,7.9436865E2,1.7583057E2,2.396644E2,1.5960522E2,1.597981E2,5.1014893E1,1.2863184E2,7.193005E1,9.831703E1,4.3827568E1,1.0874548E2,4.3483337E1,1.1342749E2,0E0,0E0,0E0,0E0,0E0,0E0,0E0,0E0,0E0,0E0,0E0,0E0,0E0,0E0,0E0,0E0],"parents":[2147483647,0,0,1,1,2,2,3,3,4,4,5,5,6,6,7,7,8,8,9,9,10,10,11,11,12,12,13,13,14,14],"right_children":[2,4,6,8,10,12,14,16,18,20,22,24,26,28,30,-1,-1,-1,-1,-1,-1,-1,-1,-1,-1,-1,-1,-1,-1,-1,-1],"split_conditions":[1.6584911E1,7.475235E0,2.4503027E1,6E0,1.1344548E1,4E0,7E0,6.357674E-1,1.599902E0,9E0,5E0,1.8777006E1,2.0564178E1,2.961942E1,2.9213415E1,-3.821226E-1,-2.4391007E-1,-2.4308601E-1,-1.5043175E-1,-1.3521175E-1,-6.8759374E-2,-8.329507E-2,1.0240074E-4,-5.466683E-2,4.1546743E-2,7.346251E-2,1.3576548E-1,1.335057E-1,2.8691027E-1,2.2194289E-1,3.5182494E-1],"split_indices":[2,2,2,0,2,0,0,2,2,0,0,2,2,2,2,0,0,0,0,0,0,0,0,0,0,0,0,0,0,0,0],"split_type":[0,0,0,0,0,0,0,0,0,0,0,0,0,0,0,0,0,0,0,0,0,0,0,0,0,0,0,0,0,0,0],"sum_hessian":[5E3,2.752E3,2.248E3,1.19E3,1.562E3,1.348E3,9E2,3.05E2,8.85E2,6.84E2,8.78E2,2.18E2,1.13E3,2.7E2,6.3E2,3.3E1,2.72E2,1.96E2,6.89E2,2.75E2,4.09E2,1.76E2,7.02E2,6.8E1,1.5E2,5.61E2,5.69E2,2.5E2,2E1,5.5E2,8E1],"tree_param":{"num_deleted":"0","num_feature":"3","num_nodes":"31","size_leaf_vector":"1"}},{"base_weights":[6.778172E-5,-1.2609495E0,1.0128819E0,-1.9218282E0,-8.124531E-1,4.2690536E-1,1.7044777E0,-2.0905838E0,-1.103592E0,-1.0087869E0,-3.266607E-1,9.109037E-2,7.9003614E-1,1.5329647E0,2.531267E0,-2.711552E-1,-1.9174688E-1,-1.8873428E-1,-8.6969964E-2,-1.2968805E-1,-7.142563E-2,-6.0151227E-2,8.329104E-3,-7.849509E-4,1.11358285E-1,4.8255213E-2,1.24906056E-1,1.3701683E-1,2.277311E-1,2.3403795E-1,3.9688045E-1],"categories":[],"categories_nodes":[],"categories_segments":[],"categories_sizes":[],"default_left":[0,0,0,0,0,0,0,0,0,0,0,0,0,0,0,0,0,0,0,0,0,0,0,0,0,0,0,0,0,0,0],"id":22,"left_children":[1,3,5,7,9,11,13,15,17,19,21,23,25,27,29,-1,-1,-1,-1,-1,-1,-1,-1,-1,-1,-1,-1,-1,-1,-1,-1],"loss_changes":[6.3884346E3,6.5882153E2,1.1234602E3,1.219668E2,1.26427185E2,1.8321103E2,1.7649585E2,7.4887695E1,2.6955444E1,7.9344055E1,4.3317635E1,7.9119995E1,1.0130228E2,1.24842285E2,5.0257935E1,0E0,0E0,0E0,0E0,0E0,0E0,0E0,0E0,0E0,0E0,0E0,0E0,0E0,0E0,0E0,0E0],"parents":[2147483647,0,0,1,1,2,2,3,3,4,4,5,5,6,6,7,7,8,8,9,9,10,10,11,11,12,12,13,13,14,14],"right_children":[2,4,6,8,10,12,14,16,18,20,22,24,26,28,30,-1,-1,-1,-1,-1,-1,-1,-1,-1,-1,-1,-1,-1,-1,-1,-1],"split_conditions":[1.3319647E1,5.390793E0,2.2254982E1,2E1,1.7E1,1.8007591E1,2.8697126E1,4E0,1.599902E0,9.495212E0,1.025129E1,2.2E1,1.5E1,2E1,2.2E1,-2.711552E-1,-1.9174688E-1,-1.8873428E-1,-8.6969964E-2,-1.2968805E-1,-7.142563E-2,-6.0151227E-2,8.329104E-3,-7.849509E-4,1.11358285E-1,4.8255213E-2,1.24906056E-1,1.3701683E-1,2.277311E-1,2.3403795E-1,3.9688045E-1],"split_indices":[2,2,2,0,0,2,2,0,2,2,2,0,0,0,0,0,0,0,0,0,0,0,0,0,0,0,0,0,0,0,0],"split_type":[0,0,0,0,0,0,0,0,0,0,0,0,0,0,0,0,0,0,0,0,0,0,0,0,0,0,0,0,0,0,0],"sum_hessian":[5E3,2.227E3,2.773E3,8.99E2,1.328E3,1.502E3,1.271E3,7.44E2,1.55E2,9.45E2,3.83E2,7.81E2,7.21E2,1.055E3,2.16E2,1.59E2,5.85E2,3.4E1,1.21E2,4.76E2,4.69E2,2.29E2,1.54E2,7.13E2,6.8E1,4.33E2,2.88E2,8.68E2,1.87E2,1.93E2,2.3E1],"tree_param":{"num_deleted":"0","num_feature":"3","num_nodes":"31","size_leaf_vector":"1"}},{"base_weights":[1.1884911E-4,-1.0508778E0,9.8596257E-1,-1.730466E0,-6.483283E-1,5.094196E-1,1.6120635E0,-1.9675678E0,-1.2375365E0,-9.169544E-1,-2.9890624E-1,1.9154565E-1,8.3448297E-1,1.474289E0,2.4311717E0,-2.2026365E-1,-1.5948458E-1,-2.2804712E-1,-1.0602106E-1,-1.0465759E-1,-4.0725194E-2,-5.6291044E-2,1.5675226E-2,-4.6824884E-2,3.296301E-2,6.686848E-2,1.4398788E-1,9.895741E-2,1.665315E-1,2.2131167E-1,3.9214128E-1],"categories":[],"categories_nodes":[],"categories_segments":[],"categories_sizes":[],"default_left":[0,0,0,0,0,0,0,0,0,0,0,0,0,0,0,0,0,0,0,0,0,0,0,0,0,0,0,0,0,0,0],"id":23,"left_children":[1,3,5,7,9,11,13,15,17,19,21,23,25,27,29,-1,-1,-1,-1,-1,-1,-1,-1,-1,-1,-1,-1,-1,-1,-1,-1],"loss_changes":[5.182664E3,6.611858E2,7.6925635E2,1.027522E2,1.4258679E2,1.514241E2,1.2224609E2,4.958203E1,5.2139343E1,5.6392517E1,7.984433E1,6.7847115E1,7.180798E1,8.696362E1,4.2989136E1,0E0,0E0,0E0,0E0,0E0,0E0,0E0,0E0,0E0,0E0,0E0,0E0,0E0,0E0,0E0,0E0],"parents":[2147483647,0,0,1,1,2,2,3,3,4,4,5,5,6,6,7,7,8,8,9,9,10,10,11,11,12,12,13,13,14,14],"right_children":[2,4,6,8,10,12,14,16,18,20,22,24,26,28,30,-1,-1,-1,-1,-1,-1,-1,-1,-1,-1,-1,-1,-1,-1,-1,-1],"split_conditions":[1.4501762E1,5.390793E0,2.3254827E1,1.6E1,1.0620589E1,1.9011961E1,2.8989555E1,3.2635982E0,7.5045455E-1,1.9E1,1.6E1,4E0,1.9E1,7E0,2.2E1,-2.2026365E-1,-1.5948458E-1,-2.2804712E-1,-1.0602106E-1,-1.0465759E-1,-4.0725194E-2,-5.6291044E-2,1.5675226E-2,-4.6824884E-2,3.296301E-2,6.686848E-2,1.4398788E-1,9.895741E-2,1.665315E-1,2.2131167E-1,3.9214128E-1],"split_indices":[2,2,2,0,2,2,2,2,2,0,0,0,0,0,0,0,0,0,0,0,0,0,0,0,0,0,0,0,0,0,0],"split_type":[0,0,0,0,0,0,0,0,0,0,0,0,0,0,0,0,0,0,0,0,0,0,0,0,0,0,0,0,0,0,0],"sum_hessian":[5E3,2.42E3,2.58E3,8.99E2,1.521E3,1.466E3,1.114E3,6.05E2,2.94E2,8.59E2,6.62E2,7.42E2,7.24E2,9.56E2,1.58E2,3.68E2,2.37E2,4.1E1,2.53E2,6.84E2,1.75E2,4.19E2,2.43E2,1.28E2,6.14E2,5.7E2,1.54E2,2.72E2,6.84E2,1.4E2,1.8E1],"tree_param":{"num_deleted":"0","num_feature":"3","num_nodes":"31","size_leaf_vector":"1"}},{"base_weights":[1.4240497E-4,-1.0240949E0,8.2278144E-1,-1.5582125E0,-6.616195E-1,2.4263696E-1,1.2847861E0,-2.1540244E0,-1.3849034E0,-1.3473877E0,-5.5508447E-1,7.6184936E-2,7.083648E-1,9.443156E-1,1.649614E0,-3.079067E-1,-1.9801565E-1,-1.5279268E-1,-8.763609E-2,-1.6508304E-1,-9.4622746E-2,-7.393452E-2,-2.4282383E-2,-1.2146681E-2,3.4020223E-2,5.610109E-2,1.6333209E-1,3.7865367E-2,1.0762139E-1,1.4192459E-1,2.195386E-1],"categories":[],"categories_nodes":[],"categories_segments":[],"categories_sizes":[],"default_left":[0,0,0,0,0,0,0,0,0,0,0,0,0,0,0,0,0,0,0,0,0,0,0,0,0,0,0,0,0,0,0],"id":24,"left_children":[1,3,5,7,9,11,13,15,17,19,21,23,25,27,29,-1,-1,-1,-1,-1,-1,-1,-1,-1,-1,-1,-1,-1,-1,-1,-1],"loss_changes":[4.2145737E3,4.3031982E2,7.432018E2,8.995068E1,9.634662E1,9.53748E1,1.9022705E2,2.6230835E1,4.957434E1,2.0105713E1,6.6103516E1,4.742392E1,4.324353E1,5.935504E1,9.042615E1,0E0,0E0,0E0,0E0,0E0,0E0,0E0,0E0,0E0,0E0,0E0,0E0,0E0,0E0,0E0,0E0],"parents":[2147483647,0,0,1,1,2,2,3,3,4,4,5,5,6,6,7,7,8,8,9,9,10,10,11,11,12,12,13,13,14,14],"right_children":[2,4,6,8,10,12,14,16,18,20,22,24,26,28,30,-1,-1,-1,-1,-1,-1,-1,-1,-1,-1,-1,-1,-1,-1,-1,-1],"split_conditions":[1.3319647E1,5.390793E0,2.065882E1,5E0,3E0,1.8E1,2.5330965E1,6.357674E-1,2E1,9.549456E0,1.0502139E1,1.7528046E1,9.201455E1,5E0,1.7E1,-3.079067E-1,-1.9801565E-1,-1.5279268E-1,-8.763609E-2,-1.6508304E-1,-9.4622746E-2,-7.393452E-2,-2.4282383E-2,-1.2146681E-2,3.4020223E-2,5.610109E-2,1.6333209E-1,3.7865367E-2,1.0762139E-1,1.4192459E-1,2.195386E-1],"split_indices":[2,2,2,0,0,0,2,2,0,2,2,2,1,0,0,0,0,0,0,0,0,0,0,0,0,0,0,0,0,0,0],"split_type":[0,0,0,0,0,0,0,0,0,0,0,0,0,0,0,0,0,0,0,0,0,0,0,0,0,0,0,0,0,0,0],"sum_hessian":[5E3,2.227E3,2.773E3,8.99E2,1.328E3,1.23E3,1.543E3,2E2,6.99E2,1.77E2,1.151E3,9.07E2,3.23E2,8E2,7.43E2,2.9E1,1.71E2,5.44E2,1.55E2,9.9E1,7.8E1,7.23E2,4.28E2,5.19E2,3.88E2,2.8E2,4.3E1,1.52E2,6.48E2,5.25E2,2.18E2],"tree_param":{"num_deleted":"0","num_feature":"3","num_nodes":"31","size_leaf_vector":"1"}},{"base_weights":[5.6951172E-5,-8.082698E-1,8.4744287E-1,-1.2862759E0,-3.9212856E-1,5.1747686E-1,1.4112166E0,-1.5484657E0,-9.694684E-1,-8.077197E-1,-2.150299E-1,3.9061993E-1,1.1109992E0,9.0685713E-1,1.6255909E0,-1.8474577E-1,-1.2582916E-1,-1.9049022E-1,-8.446731E-2,-5.363235E-2,-9.678264E-2,-4.0268347E-2,1.2479592E-2,9.379255E-3,6.692051E-2,9.5018975E-2,2.3711629E-1,8.095256E-2,2.0270173E-1,1.4941257E-1,2.4998096E-1],"categories":[],"categories_nodes":[],"categories_segments":[],"categories_sizes":[],"default_left":[0,0,0,0,0,0,0,0,0,0,0,0,0,0,0,0,0,0,0,0,0,0,0,0,0,0,0,0,0,0,0],"id":25,"left_children":[1,3,5,7,9,11,13,15,17,19,21,23,25,27,29,-1,-1,-1,-1,-1,-1,-1,-1,-1,-1,-1,-1,-1,-1,-1,-1],"loss_changes":[3.4261934E3,5.087256E2,4.5354578E2,9.7427734E1,1.0065918E2,1.1566696E2,9.59436E1,5.406909E1,6.1662872E1,1.725296E1,6.1396538E1,1.0512108E2,5.2664093E1,2.790538E1,6.878528E1,0E0,0E0,0E0,0E0,0E0,0E0,0E0,0E0,0E0,0E0,0E0,0E0,0E0,0E0,0E0,0E0],"parents":[2147483647,0,0,1,1,2,2,3,3,4,4,5,5,6,6,7,7,8,8,9,9,10,10,11,11,12,12,13,13,14,14],"right_children":[2,4,6,8,10,12,14,16,18,20,22,24,26,28,30,-1,-1,-1,-1,-1,-1,-1,-1,-1,-1,-1,-1,-1,-1,-1,-1],"split_conditions":[1.536633E1,7.475235E0,2.4503027E1,1.3E1,7E0,2E1,7E0,3.4076195E0,7.5045455E-1,5.844844E1,1.2592409E1,1.978337E1,9.26957E1,2.961942E1,2.9213415E1,-1.8474577E-1,-1.2582916E-1,-1.9049022E-1,-8.446731E-2,-5.363235E-2,-9.678264E-2,-4.0268347E-2,1.2479592E-2,9.379255E-3,6.692051E-2,9.5018975E-2,2.3711629E-1,8.095256E-2,2.0270173E-1,1.4941257E-1,2.4998096E-1],"split_indices":[2,2,2,0,0,0,0,2,2,1,2,2,1,2,2,0,0,0,0,0,0,0,0,0,0,0,0,0,0,0,0],"split_type":[0,0,0,0,0,0,0,0,0,0,0,0,0,0,0,0,0,0,0,0,0,0,0,0,0,0,0,0,0,0,0],"sum_hessian":[5E3,2.559E3,2.441E3,1.19E3,1.369E3,1.541E3,9E2,6.49E2,5.41E2,4.08E2,9.61E2,1.271E3,2.7E2,2.7E2,6.3E2,3.17E2,3.32E2,6.2E1,4.79E2,1.53E2,2.55E2,6.19E2,3.42E2,6.16E2,6.55E2,2.41E2,2.9E1,2.5E2,2E1,5.5E2,8E1],"tree_param":{"num_deleted":"0","num_feature":"3","num_nodes":"31","size_leaf_vector":"1"}},{"base_weights":[1.1654042E-4,-6.4398724E-1,8.671792E-1,-1.1102571E0,-2.3029329E-1,6.0026723E-1,1.3262649E0,-1.4473635E0,-8.916951E-1,-3.09728E-1,6.837914E-1,9.4626494E-2,7.307126E-1,1.1222719E0,1.8059106E0,-1.8257023E-1,-1.1945557E-1,-1.06323816E-1,-5.3768225E-2,-5.590306E-2,-1.1788058E-2,3.1180754E-1,5.9622057E-2,-5.590654E-2,2.5470877E-2,6.0163688E-2,1.07388556E-1,8.678183E-2,1.368143E-1,1.5618221E-1,2.3161605E-1],"categories":[],"categories_nodes":[],"categories_segments":[],"categories_sizes":[],"default_left":[0,0,0,0,0,0,0,0,0,0,0,0,0,0,0,0,0,0,0,0,0,0,0,0,0,0,0,0,0,0,0],"id":26,"left_children":[1,3,5,7,9,11,13,15,17,19,21,23,25,27,29,-1,-1,-1,-1,-1,-1,-1,-1,-1,-1,-1,-1,-1,-1,-1,-1],"loss_changes":[2.7935085E3,5.5334753E2,2.6044946E2,9.810181E1,1.107243E2,8.897482E1,7.458545E1,4.841638E1,4.9286377E1,6.694121E1,2.4147953E1,2.9233564E1,4.688269E1,3.334735E1,2.5277283E1,0E0,0E0,0E0,0E0,0E0,0E0,0E0,0E0,0E0,0E0,0E0,0E0,0E0,0E0,0E0,0E0],"parents":[2147483647,0,0,1,1,2,2,3,3,4,4,5,5,6,6,7,7,8,8,9,9,10,10,11,11,12,12,13,13,14,14],"right_children":[2,4,6,8,10,12,14,16,18,20,22,24,26,28,30,-1,-1,-1,-1,-1,-1,-1,-1,-1,-1,-1,-1,-1,-1,-1,-1],"split_conditions":[1.7190838E1,8.251634E0,2.512558E1,3.1572568E0,2.2E1,5E0,1.7E1,9E0,1.6E1,1.2110378E1,8.488427E0,1.8777006E1,1.9E1,2.7616625E1,2.846932E1,-1.8257023E-1,-1.1945557E-1,-1.06323816E-1,-5.3768225E-2,-5.590306E-2,-1.1788058E-2,3.1180754E-1,5.9622057E-2,-5.590654E-2,2.5470877E-2,6.0163688E-2,1.07388556E-1,8.678183E-2,1.368143E-1,1.5618221E-1,2.3161605E-1],"split_indices":[2,2,2,2,0,0,0,0,0,2,2,2,0,2,2,0,0,0,0,0,0,0,0,0,0,0,0,0,0,0,0],"split_type":[0,0,0,0,0,0,0,0,0,0,0,0,0,0,0,0,0,0,0,0,0,0,0,0,0,0,0,0,0,0,0],"sum_hessian":[5E3,2.869E3,2.131E3,1.348E3,1.521E3,1.349E3,7.82E2,5.28E2,8.2E2,1.4E3,1.21E2,2.77E2,1.072E3,5.51E2,2.31E2,2.09E2,3.19E2,5.51E2,2.69E2,6.08E2,7.92E2,3E0,1.18E2,5.4E1,2.23E2,7.81E2,2.91E2,2.73E2,2.78E2,1.59E2,7.2E1],"tree_param":{"num_deleted":"0","num_feature":"3","num_nodes":"31","size_leaf_vector":"1"}},{"base_weights":[2.2275292E-4,-6.08114E-1,7.448874E-1,-9.995739E-1,-2.3182389E-1,4.8431292E-1,1.1636026E0,-1.4912959E0,-8.652843E-1,-2.872982E-1,9.544273E-1,-7.133657E-3,5.819294E-1,6.934062E-1,1.3599892E0,-1.8544905E-1,-1.1973639E-1,-1.3332121E-1,-7.490709E-2,-6.0570326E-2,-1.4375756E-2,1.3860287E-1,1.43554155E-2,-4.3957617E-2,1.7596858E-2,4.619462E-2,9.4277464E-2,6.0057174E-2,1.7036691E-1,1.2468709E-1,2.0791665E-1],"categories":[],"categories_nodes":[],"categories_segments":[],"categories_sizes":[],"default_left":[0,0,0,0,0,0,0,0,0,0,0,0,0,0,0,0,0,0,0,0,0,0,0,0,0,0,0,0,0,0,0],"id":27,"left_children":[1,3,5,7,9,11,13,15,17,19,21,23,25,27,29,-1,-1,-1,-1,-1,-1,-1,-1,-1,-1,-1,-1,-1,-1,-1,-1],"loss_changes":[2.2659402E3,4.0529193E2,2.448169E2,8.778833E1,9.273229E1,6.6591064E1,7.86543E1,2.8524841E1,5.675238E1,6.129348E1,2.1849388E1,1.8368206E1,4.97005E1,2.2986336E1,4.6788208E1,0E0,0E0,0E0,0E0,0E0,0E0,0E0,0E0,0E0,0E0,0E0,0E0,0E0,0E0,0E0,0E0],"parents":[2147483647,0,0,1,1,2,2,3,3,4,4,5,5,6,6,7,7,8,8,9,9,10,10,11,11,12,12,13,13,14,14],"right_children":[2,4,6,8,10,12,14,16,18,20,22,24,26,28,30,-1,-1,-1,-1,-1,-1,-1,-1,-1,-1,-1,-1,-1,-1,-1,-1],"split_conditions":[1.6584911E1,8.251634E0,2.4719412E1,5E0,2.3E1,4E0,7E0,3.2635982E0,1.599902E0,7E0,7.6608154E1,1.8777006E1,8.216013E1,2.961942E1,2.9213415E1,-1.8544905E-1,-1.1973639E-1,-1.3332121E-1,-7.490709E-2,-6.0570326E-2,-1.4375756E-2,1.3860287E-1,1.43554155E-2,-4.3957617E-2,1.7596858E-2,4.619462E-2,9.4277464E-2,6.0057174E-2,1.7036691E-1,1.2468709E-1,2.0791665E-1],"split_indices":[2,2,2,0,0,0,0,2,2,0,1,2,1,2,2,0,0,0,0,0,0,0,0,0,0,0,0,0,0,0,0],"split_type":[0,0,0,0,0,0,0,0,0,0,0,0,0,0,0,0,0,0,0,0,0,0,0,0,0,0,0,0,0,0,0],"sum_hessian":[5E3,2.752E3,2.248E3,1.348E3,1.404E3,1.387E3,8.61E2,2.87E2,1.061E3,1.342E3,6.2E1,2.3E2,1.157E3,2.55E2,6.06E2,1.26E2,1.61E2,2.09E2,8.52E2,4.16E2,9.26E2,4E1,2.2E1,6.8E1,1.62E2,8.7E2,2.87E2,2.35E2,2E1,5.26E2,8E1],"tree_param":{"num_deleted":"0","num_feature":"3","num_nodes":"31","size_leaf_vector":"1"}},{"base_weights":[2.4863053E-4,-6.8596107E-1,5.429758E-1,-1.0698011E0,-4.5858985E-1,1.9356926E-1,8.9601624E-1,-1.6745428E0,-9.659119E-1,-6.003351E-1,-1.04142874E-1,1.0852047E-1,7.644822E-1,8.2174647E-1,1.6964387E0,-6.847802E-2,-1.8327896E-1,-1.0829096E-1,-4.4189226E-2,-1.11814514E-1,-5.223284E-2,-2.2222795E-2,2.0317825E-2,7.83628E-4,4.575794E-2,6.947656E-2,2.6937088E-1,6.3708805E-2,1.07364856E-1,1.4600997E-1,2.7696785E-1],"categories":[],"categories_nodes":[],"categories_segments":[],"categories_sizes":[],"default_left":[0,0,0,0,0,0,0,0,0,0,0,0,0,0,0,0,0,0,0,0,0,0,0,0,0,0,0,0,0,0,0],"id":28,"left_children":[1,3,5,7,9,11,13,15,17,19,21,23,25,27,29,-1,-1,-1,-1,-1,-1,-1,-1,-1,-1,-1,-1,-1,-1,-1,-1],"loss_changes":[1.862868E3,1.9229797E2,3.4435608E2,4.996277E1,6.97225E1,6.813746E1,8.11781E1,1.7383575E1,4.2621765E1,3.9485443E1,1.4488587E1,4.301355E1,2.2607353E1,5.85307E1,2.5632874E1,0E0,0E0,0E0,0E0,0E0,0E0,0E0,0E0,0E0,0E0,0E0,0E0,0E0,0E0,0E0,0E0],"parents":[2147483647,0,0,1,1,2,2,3,3,4,4,5,5,6,6,7,7,8,8,9,9,10,10,11,11,12,12,13,13,14,14],"right_children":[2,4,6,8,10,12,14,16,18,20,22,24,26,28,30,-1,-1,-1,-1,-1,-1,-1,-1,-1,-1,-1,-1,-1,-1,-1,-1],"split_conditions":[1.3199213E1,4.887498E0,2.157534E1,6.357674E-1,1.7E1,2.1E1,2.2E1,3.8276688E1,2E1,2E0,2.2E1,1.978337E1,9.7003784E1,2.6367996E1,2.8915285E1,-6.847802E-2,-1.8327896E-1,-1.0829096E-1,-4.4189226E-2,-1.11814514E-1,-5.223284E-2,-2.2222795E-2,2.0317825E-2,7.83628E-4,4.575794E-2,6.947656E-2,2.6937088E-1,6.3708805E-2,1.07364856E-1,1.4600997E-1,2.7696785E-1],"split_indices":[2,2,2,2,0,0,0,1,0,0,0,2,1,2,2,0,0,0,0,0,0,0,0,0,0,0,0,0,0,0,0],"split_type":[0,0,0,0,0,0,0,0,0,0,0,0,0,0,0,0,0,0,0,0,0,0,0,0,0,0,0,0,0,0,0],"sum_hessian":[5E3,2.208E3,2.792E3,8.2E2,1.388E3,1.404E3,1.388E3,1.18E2,7.02E2,9.91E2,3.97E2,1.223E3,1.81E2,1.272E3,1.16E2,1.7E1,1.01E2,5.73E2,1.29E2,1.28E2,8.63E2,2.87E2,1.1E2,9.5E2,2.73E2,1.76E2,5E0,7.36E2,5.36E2,9.7E1,1.9E1],"tree_param":{"num_deleted":"0","num_feature":"3","num_nodes":"31","size_leaf_vector":"1"}},{"base_weights":[3.0549007E-4,-6.0827965E-1,4.970735E-1,-9.700052E-1,-4.073728E-1,2.0613548E-1,8.3588165E-1,-1.0737109E0,-4.804313E-1,-9.304312E-1,-3.2516292E-1,-9.842405E-2,3.597506E-1,7.249981E-1,1.3377442E0,-1.5517414E-1,-9.826915E-2,-8.430555E-3,-8.753696E-2,-8.23305E-2,-2.6572528E-1,-3.8138416E-2,2.3401042E-2,-6.064629E-2,-2.7445068E-3,1.6260033E-2,5.647278E-2,6.2461074E-2,1.1644026E-1,1.2403204E-1,2.996132E-1],"categories":[],"categories_nodes":[],"categories_segments":[],"categories_sizes":[],"default_left":[0,0,0,0,0,0,0,0,0,0,0,0,0,0,0,0,0,0,0,0,0,0,0,0,0,0,0,0,0,0,0],"id":29,"left_children":[1,3,5,7,9,11,13,15,17,19,21,23,25,27,29,-1,-1,-1,-1,-1,-1,-1,-1,-1,-1,-1,-1,-1,-1,-1,-1],"loss_changes":[1.5122328E3,1.6297412E2,2.7129547E2,4.020294E1,6.191931E1,6.941748E1,6.981476E1,2.7235352E1,2.2141426E1,3.4069885E1,3.94489E1,1.7941277E1,3.975373E1,4.532422E1,3.3282593E1,0E0,0E0,0E0,0E0,0E0,0E0,0E0,0E0,0E0,0E0,0E0,0E0,0E0,0E0,0E0,0E0],"parents":[2147483647,0,0,1,1,2,2,3,3,4,4,5,5,6,6,7,7,8,8,9,9,10,10,11,11,12,12,13,13,14,14],"right_children":[2,4,6,8,10,12,14,16,18,20,22,24,26,28,30,-1,-1,-1,-1,-1,-1,-1,-1,-1,-1,-1,-1,-1,-1,-1,-1],"split_conditions":[1.3442255E1,4.802884E0,2.2254982E1,2E1,3E0,8E0,2E1,6.357674E-1,2.2E1,9.505853E1,2.2E1,1E0,1.8007591E1,2.8595015E1,2.961942E1,-1.5517414E-1,-9.826915E-2,-8.430555E-3,-8.753696E-2,-8.23305E-2,-2.6572528E-1,-3.8138416E-2,2.3401042E-2,-6.064629E-2,-2.7445068E-3,1.6260033E-2,5.647278E-2,6.2461074E-2,1.1644026E-1,1.2403204E-1,2.996132E-1],"split_indices":[2,2,2,0,0,0,0,2,0,1,0,0,2,2,2,0,0,0,0,0,0,0,0,0,0,0,0,0,0,0,0],"split_type":[0,0,0,0,0,0,0,0,0,0,0,0,0,0,0,0,0,0,0,0,0,0,0,0,0,0,0,0,0,0,0],"sum_hessian":[5E3,2.247E3,2.753E3,8.01E2,1.446E3,1.482E3,1.271E3,6.6E2,1.41E2,1.95E2,1.251E3,4.97E2,9.85E2,1.043E3,2.28E2,1.03E2,5.57E2,7.1E1,7E1,1.85E2,1E1,1.137E3,1.14E2,6E1,4.37E2,5.03E2,4.82E2,8.51E2,1.92E2,2.17E2,1.1E1],"tree_param":{"num_deleted":"0","num_feature":"3","num_nodes":"31","size_leaf_vector":"1"}},{"base_weights":[2.5490273E-4,-4.2685765E-1,5.75214E-1,-7.075708E-1,-1.0037632E-1,3.9505774E-1,8.850936E-1,-1.1927707E0,-6.046482E-1,-1.5261702E-1,5.224146E-1,1.6245272E-2,4.928348E-1,7.2611207E-1,1.2595451E0,-1.9034137E-1,-1.0748028E-1,-8.4555455E-2,-4.5861837E-2,-7.311621E-2,-1.2274099E-2,-4.097492E-2,6.383228E-2,1.2103375E-2,-9.236888E-2,3.9421808E-2,7.552508E-2,6.486175E-2,1.21032946E-1,1.2963846E-1,-3.4413848E-2],"categories":[],"categories_nodes":[],"categories_segments":[],"categories_sizes":[],"default_left":[0,0,0,0,0,0,0,0,0,0,0,0,0,0,0,0,0,0,0,0,0,0,0,0,0,0,0,0,0,0,0],"id":30,"left_children":[1,3,5,7,9,11,13,15,17,19,21,23,25,27,29,-1,-1,-1,-1,-1,-1,-1,-1,-1,-1,-1,-1,-1,-1,-1,-1],"loss_changes":[1.2283524E3,2.6295758E2,1.1867291E2,7.633319E1,4.328625E1,4.999489E1,4.569812E1,2.050534E1,4.4466125E1,2.1101217E1,1.1390228E1,2.7493198E1,2.7470001E1,1.9928314E1,1.4152435E1,0E0,0E0,0E0,0E0,0E0,0E0,0E0,0E0,0E0,0E0,0E0,0E0,0E0,0E0,0E0,0E0],"parents":[2147483647,0,0,1,1,2,2,3,3,4,4,5,5,6,6,7,7,8,8,9,9,10,10,11,11,12,12,13,13,14,14],"right_children":[2,4,6,8,10,12,14,16,18,20,22,24,26,28,30,-1,-1,-1,-1,-1,-1,-1,-1,-1,-1,-1,-1,-1,-1,-1,-1],"split_conditions":[1.7190838E1,9.340178E0,2.512558E1,4E0,2.2E1,5E0,1.7E1,1.1033338E0,3.513217E0,1E0,1.025129E1,9.111136E1,1.9E1,2.9322752E1,9.803656E1,-1.9034137E-1,-1.0748028E-1,-8.4555455E-2,-4.5861837E-2,-7.311621E-2,-1.2274099E-2,-4.097492E-2,6.383228E-2,1.2103375E-2,-9.236888E-2,3.9421808E-2,7.552508E-2,6.486175E-2,1.21032946E-1,1.2963846E-1,-3.4413848E-2],"split_indices":[2,2,2,0,0,0,0,2,2,0,2,1,0,2,1,0,0,0,0,0,0,0,0,0,0,0,0,0,0,0,0],"split_type":[0,0,0,0,0,0,0,0,0,0,0,0,0,0,0,0,0,0,0,0,0,0,0,0,0,0,0,0,0,0,0],"sum_hessian":[5E3,2.869E3,2.131E3,1.542E3,1.327E3,1.349E3,7.82E2,2.68E2,1.274E3,1.225E3,1.02E2,2.77E2,1.072E3,5.51E2,2.31E2,3.6E1,2.32E2,4.79E2,7.95E2,5.9E1,1.166E3,1.1E1,9.1E1,2.5E2,2.7E1,7.81E2,2.91E2,4.77E2,7.4E1,2.26E2,5E0],"tree_param":{"num_deleted":"0","num_feature":"3","num_nodes":"31","size_leaf_vector":"1"}},{"base_weights":[1.9461375E-4,-5.0404674E-1,3.99002E-1,-7.289862E-1,-2.9055426E-1,1.0903718E-1,6.3349485E-1,-8.199114E-1,-2.6927146E-1,-7.3571736E-1,-2.1939509E-1,4.341722E-2,5.372819E-1,5.740997E-1,1.275115E0,-6.951378E-2,-1.1132836E-1,2.006727E-2,-4.6326965E-2,-6.504046E-2,-2.0568922E-1,-3.5005104E-2,-7.154152E-3,-2.3926426E-2,1.1314523E-2,6.63694E-2,-2.0222992E-2,4.2111322E-2,7.646026E-2,1.03580356E-1,1.9756375E-1],"categories":[],"categories_nodes":[],"categories_segments":[],"categories_sizes":[],"default_left":[0,0,0,0,0,0,0,0,0,0,0,0,0,0,0,0,0,0,0,0,0,0,0,0,0,0,0,0,0,0,0],"id":31,"left_children":[1,3,5,7,9,11,13,15,17,19,21,23,25,27,29,-1,-1,-1,-1,-1,-1,-1,-1,-1,-1,-1,-1,-1,-1,-1,-1],"loss_changes":[1.0058781E3,1.0587073E2,1.8984006E2,4.4713806E1,3.579248E1,3.5103424E1,5.81084E1,3.2060913E1,1.6412094E1,1.6245422E1,1.8906551E1,2.1413307E1,1.56524315E1,4.0917297E1,1.9747223E1,0E0,0E0,0E0,0E0,0E0,0E0,0E0,0E0,0E0,0E0,0E0,0E0,0E0,0E0,0E0,0E0],"parents":[2147483647,0,0,1,1,2,2,3,3,4,4,5,5,6,6,7,7,8,8,9,9,10,10,11,11,12,12,13,13,14,14],"right_children":[2,4,6,8,10,12,14,16,18,20,22,24,26,28,30,-1,-1,-1,-1,-1,-1,-1,-1,-1,-1,-1,-1,-1,-1,-1,-1],"split_conditions":[1.3199213E1,6.638522E0,2.065882E1,2E1,3E0,2.1E1,2.2E1,7.9544876E1,5.0547436E1,9.505853E1,6.809282E1,4E0,1.978337E1,2.5689005E1,2.8209354E1,-6.951378E-2,-1.1132836E-1,2.006727E-2,-4.6326965E-2,-6.504046E-2,-2.0568922E-1,-3.5005104E-2,-7.154152E-3,-2.3926426E-2,1.1314523E-2,6.63694E-2,-2.0222992E-2,4.2111322E-2,7.646026E-2,1.03580356E-1,1.9756375E-1],"split_indices":[2,2,2,0,0,0,0,1,1,1,1,0,2,2,2,0,0,0,0,0,0,0,0,0,0,0,0,0,0,0,0],"split_type":[0,0,0,0,0,0,0,0,0,0,0,0,0,0,0,0,0,0,0,0,0,0,0,0,0,0,0,0,0,0,0],"sum_hessian":[5E3,2.208E3,2.792E3,1.074E3,1.134E3,1.249E3,1.543E3,8.96E2,1.78E2,1.55E2,9.79E2,1.084E3,1.65E2,1.414E3,1.29E2,6.31E2,2.65E2,5.2E1,1.26E2,1.47E2,8E0,5.19E2,4.6E2,2.14E2,8.7E2,1.41E2,2.4E1,7.86E2,6.28E2,9.8E1,3.1E1],"tree_param":{"num_deleted":"0","num_feature":"3","num_nodes":"31","size_leaf_vector":"1"}},{"base_weights":[1.6177926E-4,-3.4037536E-1,4.8210973E-1,-5.778727E-1,-7.630141E-2,3.7550142E-1,8.244023E-1,-9.991098E-1,-4.8854667E-1,-1.21728644E-1,4.3774176E-1,2.8216994E-1,7.102946E-1,2.6666248E-1,9.628039E-1,-1.6404104E-1,-8.9298435E-2,-1.0418054E-1,-4.4312175E-2,-3.0148948E-2,-3.7893057E-3,3.445937E-2,1.3627075E-1,-4.0827155E-2,3.183001E-2,6.270513E-2,1.3840416E-1,-1.6828871E-1,3.45116E-2,8.308751E-2,1.4934354E-1],"categories":[],"categories_nodes":[],"categories_segments":[],"categories_sizes":[],"default_left":[0,0,0,0,0,0,0,0,0,0,0,0,0,0,0,0,0,0,0,0,0,0,0,0,0,0,0,0,0,0,0],"id":32,"left_children":[1,3,5,7,9,11,13,15,17,19,21,23,25,27,29,-1,-1,-1,-1,-1,-1,-1,-1,-1,-1,-1,-1,-1,-1,-1,-1],"loss_changes":[8.209341E2,1.8377899E2,7.526376E1,5.7571045E1,3.24886E1,4.9200684E1,3.76445E1,1.6842834E1,3.158133E1,1.923342E1,9.266361E0,3.1012802E1,1.8425339E1,1.5722741E1,2.6271362E1,0E0,0E0,0E0,0E0,0E0,0E0,0E0,0E0,0E0,0E0,0E0,0E0,0E0,0E0,0E0,0E0],"parents":[2147483647,0,0,1,1,2,2,3,3,4,4,5,5,6,6,7,7,8,8,9,9,10,10,11,11,12,12,13,13,14,14],"right_children":[2,4,6,8,10,12,14,16,18,20,22,24,26,28,30,-1,-1,-1,-1,-1,-1,-1,-1,-1,-1,-1,-1,-1,-1,-1,-1],"split_conditions":[1.7528046E1,9.340178E0,2.6943527E1,4E0,2.2E1,1.9E1,4E0,1.1033338E0,6.357674E-1,7E0,9.111136E1,1E0,9.3584305E1,2.7070381E1,2.9322752E1,-1.6404104E-1,-8.9298435E-2,-1.0418054E-1,-4.4312175E-2,-3.0148948E-2,-3.7893057E-3,3.445937E-2,1.3627075E-1,-4.0827155E-2,3.183001E-2,6.270513E-2,1.3840416E-1,-1.6828871E-1,3.45116E-2,8.308751E-2,1.4934354E-1],"split_indices":[2,2,2,0,0,0,0,2,2,0,1,0,1,2,2,0,0,0,0,0,0,0,0,0,0,0,0,0,0,0,0],"split_type":[0,0,0,0,0,0,0,0,0,0,0,0,0,0,0,0,0,0,0,0,0,0,0,0,0,0,0,0,0,0,0],"sum_hessian":[5E3,2.93E3,2.07E3,1.542E3,1.388E3,1.58E3,4.9E2,2.68E2,1.274E3,1.276E3,1.12E2,1.237E3,3.43E2,9.8E1,3.92E2,3.6E1,2.32E2,9.5E1,1.179E3,4.05E2,8.71E2,1.03E2,9E0,6.1E1,1.176E3,3.07E2,3.6E1,3E0,9.5E1,3.16E2,7.6E1],"tree_param":{"num_deleted":"0","num_feature":"3","num_nodes":"31","size_leaf_vector":"1"}},{"base_weights":[1.5082743E-4,-4.3245357E-1,3.1115022E-1,-7.15792E-1,-3.217284E-1,6.9241345E-2,5.1389426E-1,-1.234981E0,-6.361573E-1,-3.9357692E-1,-4.8823148E-2,-2.902694E-1,1.4441717E-1,3.58966E-1,6.939763E-1,-1.3576983E-1,8.036896E-2,-6.450265E-3,-6.925693E-2,-4.4259824E-2,-6.275303E-3,-5.35795E-4,-2.286388E-1,-9.784413E-2,-2.090791E-2,9.504494E-3,5.619849E-2,1.3652722E-2,5.2746277E-2,5.9389483E-2,1.03103735E-1],"categories":[],"categories_nodes":[],"categories_segments":[],"categories_sizes":[],"default_left":[0,0,0,0,0,0,0,0,0,0,0,0,0,0,0,0,0,0,0,0,0,0,0,0,0,0,0,0,0,0,0],"id":33,"left_children":[1,3,5,7,9,11,13,15,17,19,21,23,25,27,29,-1,-1,-1,-1,-1,-1,-1,-1,-1,-1,-1,-1,-1,-1,-1,-1],"loss_changes":[6.7296765E2,6.540137E1,1.4268707E2,2.348413E1,2.9510178E1,3.5933136E1,4.391623E1,2.0355057E1,1.6434158E1,1.930339E1,3.0623451E1,1.2646193E1,2.2603846E1,3.1898605E1,2.4046906E1,0E0,0E0,0E0,0E0,0E0,0E0,0E0,0E0,0E0,0E0,0E0,0E0,0E0,0E0,0E0,0E0],"parents":[2147483647,0,0,1,1,2,2,3,3,4,4,5,5,6,6,7,7,8,8,9,9,10,10,11,11,12,12,13,13,14,14],"right_children":[2,4,6,8,10,12,14,16,18,20,22,24,26,28,30,-1,-1,-1,-1,-1,-1,-1,-1,-1,-1,-1,-1,-1,-1,-1,-1],"split_conditions":[1.2592409E1,3.513217E0,2.045027E1,3E0,1.9E1,4E0,1.3E1,3.2635982E0,3.609765E1,1.1459504E1,9.919652E1,1.3319647E1,2.2E1,5.9253525E1,2.773901E1,-1.3576983E-1,8.036896E-2,-6.450265E-3,-6.925693E-2,-4.4259824E-2,-6.275303E-3,-5.35795E-4,-2.286388E-1,-9.784413E-2,-2.090791E-2,9.504494E-3,5.619849E-2,1.3652722E-2,5.2746277E-2,5.9389483E-2,1.03103735E-1],"split_indices":[2,2,2,0,0,0,0,2,1,2,1,2,0,1,2,0,0,0,0,0,0,0,0,0,0,0,0,0,0,0,0],"split_type":[0,0,0,0,0,0,0,0,0,0,0,0,0,0,0,0,0,0,0,0,0,0,0,0,0,0,0,0,0,0,0],"sum_hessian":[5E3,2.091E3,2.909E3,5.86E2,1.505E3,1.327E3,1.582E3,7.6E1,5.1E2,1.191E3,3.14E2,2.29E2,1.098E3,8.52E2,7.3E2,7.2E1,4E0,4.6E1,4.64E2,1.037E3,1.54E2,3.09E2,5E0,2.3E1,2.06E2,9.83E2,1.15E2,3.68E2,4.84E2,5.65E2,1.65E2],"tree_param":{"num_deleted":"0","num_feature":"3","num_nodes":"31","size_leaf_vector":"1"}},{"base_weights":[8.869629E-5,-3.894045E-1,2.8009546E-1,-5.942461E-1,-2.6185036E-1,1.1981491E-1,5.380181E-1,-2.757426E-1,-7.045898E-1,-4.6615306E-1,-1.7126364E-1,-1.3193992E-1,2.040806E-1,4.9871978E-1,1.2088658E0,-7.9041176E-2,-4.6676616E-3,-1.1576768E-1,-6.2471528E-2,-6.0929652E-2,-2.221742E-2,-2.014663E-2,3.228235E-2,-5.6169566E-2,-4.8815636E-3,1.5594251E-2,5.67649E-2,2.8352777E-2,6.457388E-2,9.3949474E-2,2.2305062E-1],"categories":[],"categories_nodes":[],"categories_segments":[],"categories_sizes":[],"default_left":[0,0,0,0,0,0,0,0,0,0,0,0,0,0,0,0,0,0,0,0,0,0,0,0,0,0,0,0,0,0,0],"id":34,"left_children":[1,3,5,7,9,11,13,15,17,19,21,23,25,27,29,-1,-1,-1,-1,-1,-1,-1,-1,-1,-1,-1,-1,-1,-1,-1,-1],"loss_changes":[5.455217E2,5.4505005E1,1.2023488E2,2.7991882E1,2.381285E1,3.81278E1,2.8792053E1,2.448489E1,2.0809875E1,1.3694519E1,1.3435823E1,1.6083717E1,2.3468487E1,3.3194275E1,1.4691673E1,0E0,0E0,0E0,0E0,0E0,0E0,0E0,0E0,0E0,0E0,0E0,0E0,0E0,0E0,0E0,0E0],"parents":[2147483647,0,0,1,1,2,2,3,3,4,4,5,5,6,6,7,7,8,8,9,9,10,10,11,11,12,12,13,13,14,14],"right_children":[2,4,6,8,10,12,14,16,18,20,22,24,26,28,30,-1,-1,-1,-1,-1,-1,-1,-1,-1,-1,-1,-1,-1,-1,-1,-1],"split_conditions":[1.2592409E1,4.802884E0,2.3254827E1,4.6874504E1,7E0,6E0,2.961942E1,7E0,6.357674E-1,9.680044E0,2.3E1,1E0,2.2E1,1E1,2E1,-7.9041176E-2,-4.6676616E-3,-1.1576768E-1,-6.2471528E-2,-6.0929652E-2,-2.221742E-2,-2.014663E-2,3.228235E-2,-5.6169566E-2,-4.8815636E-3,1.5594251E-2,5.67649E-2,2.8352777E-2,6.457388E-2,9.3949474E-2,2.2305062E-1],"split_indices":[2,2,2,1,0,0,2,0,2,2,0,0,0,0,0,0,0,0,0,0,0,0,0,0,0,0,0,0,0,0,0],"split_type":[0,0,0,0,0,0,0,0,0,0,0,0,0,0,0,0,0,0,0,0,0,0,0,0,0,0,0,0,0,0,0],"sum_hessian":[5E3,2.091E3,2.909E3,8.01E2,1.29E3,1.795E3,1.114E3,2.07E2,5.94E2,3.95E2,8.95E2,4.5E2,1.345E3,1.054E3,6E1,6.3E1,1.44E2,8.7E1,5.07E2,2.48E2,1.47E2,8.44E2,5.1E1,7.2E1,3.78E2,1.189E3,1.56E2,4.29E2,6.25E2,4.9E1,1.1E1],"tree_param":{"num_deleted":"0","num_feature":"3","num_nodes":"31","size_leaf_vector":"1"}},{"base_weights":[9.706714E-5,-2.531681E-1,3.5853267E-1,-4.3861046E-1,-7.23006E-2,2.872037E-1,6.8247205E-1,-5.119322E-1,-8.549822E-2,-9.638042E-2,4.5523375E-1,1.9175874E-1,5.176526E-1,6.3604844E-1,2.0260446E0,-8.4735565E-2,-4.4983875E-2,3.2242034E-3,-6.864727E-2,-2.4388034E-2,-2.9537885E-3,9.0550296E-2,-1.3494528E-2,-4.6991752E-4,2.5819689E-2,-2.603968E-2,5.594145E-2,5.7311434E-2,1.4273082E-1,2.407863E-1,-1.0869789E-1],"categories":[],"categories_nodes":[],"categories_segments":[],"categories_sizes":[],"default_left":[0,0,0,0,0,0,0,0,0,0,0,0,0,0,0,0,0,0,0,0,0,0,0,0,0,0,0,0,0,0,0],"id":35,"left_children":[1,3,5,7,9,11,13,15,17,19,21,23,25,27,29,-1,-1,-1,-1,-1,-1,-1,-1,-1,-1,-1,-1,-1,-1,-1,-1],"loss_changes":[4.5407782E2,9.827551E1,4.7657043E1,3.7420227E1,1.8907734E1,3.7270554E1,2.1976639E1,2.4570282E1,1.7711857E1,1.4002817E1,1.7395256E1,1.5703136E1,1.6294601E1,1.7208588E1,1.6880611E1,0E0,0E0,0E0,0E0,0E0,0E0,0E0,0E0,0E0,0E0,0E0,0E0,0E0,0E0,0E0,0E0],"parents":[2147483647,0,0,1,1,2,2,3,3,4,4,5,5,6,6,7,7,8,8,9,9,10,10,11,11,12,12,13,13,14,14],"right_children":[2,4,6,8,10,12,14,16,18,20,22,24,26,28,30,-1,-1,-1,-1,-1,-1,-1,-1,-1,-1,-1,-1,-1,-1,-1,-1],"split_conditions":[1.7528046E1,8.818841E0,2E1,2E1,2.3E1,2.6210182E1,2.961942E1,3E0,8.989122E1,7E0,7.604358E1,1.978337E1,1E0,9.449935E1,7.778568E1,-8.4735565E-2,-4.4983875E-2,3.2242034E-3,-6.864727E-2,-2.4388034E-2,-2.9537885E-3,9.0550296E-2,-1.3494528E-2,-4.6991752E-4,2.5819689E-2,-2.603968E-2,5.594145E-2,5.7311434E-2,1.4273082E-1,2.407863E-1,-1.0869789E-1],"split_indices":[2,2,0,0,0,2,2,0,1,0,1,2,0,1,1,0,0,0,0,0,0,0,0,0,0,0,0,0,0,0,0],"split_type":[0,0,0,0,0,0,0,0,0,0,0,0,0,0,0,0,0,0,0,0,0,0,0,0,0,0,0,0,0,0,0],"sum_hessian":[5E3,2.93E3,2.07E3,1.446E3,1.484E3,1.698E3,3.72E2,1.197E3,2.49E2,1.42E3,6.4E1,1.202E3,4.96E2,3.61E2,1.1E1,1.85E2,1.012E3,2.09E2,4E1,4.42E2,9.78E2,3.6E1,2.8E1,3.04E2,8.98E2,2.5E1,4.71E2,3.36E2,2.5E1,1E1,1E0],"tree_param":{"num_deleted":"0","num_feature":"3","num_nodes":"31","size_leaf_vector":"1"}},{"base_weights":[1.359452E-4,-2.510219E-1,2.935344E-1,-4.448854E-1,-1.2230238E-1,1.7680338E-1,4.7549555E-1,-5.121299E-1,-1.0542621E-1,-2.503439E-1,3.3870297E-3,-1.0242317E-1,2.3060578E-1,2.109128E-1,5.883742E-1,-4.042351E-2,-7.665562E-2,1.6643919E-2,-3.884511E-2,-1.3404335E-2,-4.2455826E-2,-1.9457575E-2,2.2705046E-2,3.1882548E-3,-4.7063526E-2,1.4747396E-2,4.7950137E-2,1.7100464E-1,1.5288894E-2,5.2641492E-2,1.0025861E-1],"categories":[],"categories_nodes":[],"categories_segments":[],"categories_sizes":[],"default_left":[0,0,0,0,0,0,0,0,0,0,0,0,0,0,0,0,0,0,0,0,0,0,0,0,0,0,0,0,0,0,0],"id":36,"left_children":[1,3,5,7,9,11,13,15,17,19,21,23,25,27,29,-1,-1,-1,-1,-1,-1,-1,-1,-1,-1,-1,-1,-1,-1,-1,-1],"loss_changes":[3.6859396E2,6.7196655E1,4.89178E1,2.4484772E1,2.608835E1,2.1161072E1,2.6784943E1,2.431392E1,1.3837751E1,1.6212856E1,3.6307064E1,1.1290286E1,2.4344833E1,2.3311625E1,1.5666351E1,0E0,0E0,0E0,0E0,0E0,0E0,0E0,0E0,0E0,0E0,0E0,0E0,0E0,0E0,0E0,0E0],"parents":[2147483647,0,0,1,1,2,2,3,3,4,4,5,5,6,6,7,7,8,8,9,9,10,10,11,11,12,12,13,13,14,14],"right_children":[2,4,6,8,10,12,14,16,18,20,22,24,26,28,30,-1,-1,-1,-1,-1,-1,-1,-1,-1,-1,-1,-1,-1,-1,-1,-1],"split_conditions":[1.617598E1,6.638522E0,2.4503027E1,2E1,1.2E1,4E0,7E0,7.9544876E1,2.2E1,7.246631E1,6.809282E1,8.130142E1,8.216013E1,3.1361364E1,2.9213415E1,-4.042351E-2,-7.665562E-2,1.6643919E-2,-3.884511E-2,-1.3404335E-2,-4.2455826E-2,-1.9457575E-2,2.2705046E-2,3.1882548E-3,-4.7063526E-2,1.4747396E-2,4.7950137E-2,1.7100464E-1,1.5288894E-2,5.2641492E-2,1.0025861E-1],"split_indices":[2,2,2,0,0,0,0,1,0,1,1,1,1,1,2,0,0,0,0,0,0,0,0,0,0,0,0,0,0,0,0],"split_type":[0,0,0,0,0,0,0,0,0,0,0,0,0,0,0,0,0,0,0,0,0,0,0,0,0,0,0,0,0,0,0],"sum_hessian":[5E3,2.694E3,2.306E3,1.074E3,1.62E3,1.406E3,9E2,8.96E2,1.78E2,8.02E2,8.18E2,2.27E2,1.179E3,2.7E2,6.3E2,6.31E2,2.65E2,9.1E1,8.7E1,4.82E2,3.2E2,4.34E2,3.84E2,1.67E2,6E1,8.85E2,2.94E2,9E0,2.61E2,5.5E2,8E1],"tree_param":{"num_deleted":"0","num_feature":"3","num_nodes":"31","size_leaf_vector":"1"}},{"base_weights":[1.5524466E-4,-2.0632604E-1,2.9237953E-1,-3.496432E-1,-4.6970576E-2,2.2988483E-1,5.762564E-1,-7.066038E-1,-2.956524E-1,-7.69951E-2,2.9274872E-1,1.5141882E-1,4.193511E-1,5.360031E-1,1.7425436E0,-6.423851E-2,-2.1836102E-1,-7.160778E-2,-2.6049152E-2,-1.1216161E-2,1.45094395E-2,2.4573278E-1,2.5148172E-2,1.643467E-2,-7.087964E-2,2.2540465E-2,5.547402E-2,4.800315E-2,1.24086596E-1,2.516552E-1,1.5562134E-2],"categories":[],"categories_nodes":[],"categories_segments":[],"categories_sizes":[],"default_left":[0,0,0,0,0,0,0,0,0,0,0,0,0,0,0,0,0,0,0,0,0,0,0,0,0,0,0,0,0,0,0],"id":37,"left_children":[1,3,5,7,9,11,13,15,17,19,21,23,25,27,29,-1,-1,-1,-1,-1,-1,-1,-1,-1,-1,-1,-1,-1,-1,-1,-1],"loss_changes":[3.0181488E2,6.6922844E1,3.660872E1,2.9528717E1,1.4190212E1,2.5194954E1,1.6577194E1,1.7757286E1,1.9651604E1,9.989788E0,9.475836E0,1.3494757E1,1.2925308E1,1.3686089E1,1.4347866E1,0E0,0E0,0E0,0E0,0E0,0E0,0E0,0E0,0E0,0E0,0E0,0E0,0E0,0E0,0E0,0E0],"parents":[2147483647,0,0,1,1,2,2,3,3,4,4,5,5,6,6,7,7,8,8,9,9,10,10,11,11,12,12,13,13,14,14],"right_children":[2,4,6,8,10,12,14,16,18,20,22,24,26,28,30,-1,-1,-1,-1,-1,-1,-1,-1,-1,-1,-1,-1,-1,-1,-1,-1],"split_conditions":[1.7528046E1,9.340178E0,2E1,3E0,2.2E1,2.6210182E1,2.961942E1,9.6014336E1,6.357674E-1,9.084224E1,9.495212E0,2.6055195E1,5.8186985E1,9.449935E1,5.0547436E1,-6.423851E-2,-2.1836102E-1,-7.160778E-2,-2.6049152E-2,-1.1216161E-2,1.45094395E-2,2.4573278E-1,2.5148172E-2,1.643467E-2,-7.087964E-2,2.2540465E-2,5.547402E-2,4.800315E-2,1.24086596E-1,2.516552E-1,1.5562134E-2],"split_indices":[2,2,0,0,0,2,2,1,2,1,2,2,1,1,1,0,0,0,0,0,0,0,0,0,0,0,0,0,0,0,0],"split_type":[0,0,0,0,0,0,0,0,0,0,0,0,0,0,0,0,0,0,0,0,0,0,0,0,0,0,0,0,0,0,0],"sum_hessian":[5E3,2.93E3,2.07E3,1.542E3,1.388E3,1.698E3,3.72E2,2.01E2,1.341E3,1.276E3,1.12E2,1.202E3,4.96E2,3.61E2,1.1E1,1.94E2,7E0,1.02E2,1.239E3,1.102E3,1.74E2,1E0,1.11E2,1.185E3,1.7E1,2.05E2,2.91E2,3.36E2,2.5E1,7E0,4E0],"tree_param":{"num_deleted":"0","num_feature":"3","num_nodes":"31","size_leaf_vector":"1"}},{"base_weights":[2.1102889E-4,-2.6235172E-1,1.889674E-1,-7.538467E-1,-2.3258969E-1,6.7044765E-2,3.4591886E-1,-2.5371158E-1,-9.195808E-1,-3.0625224E-1,-8.5804254E-2,-5.7607334E-2,1.8568122E-1,3.0240715E-1,8.2169497E-1,-1.659781E-1,-4.3783416E-3,-2.3927653E-1,-7.4454084E-2,-3.9623927E-2,-1.3832795E-2,2.5537996E-2,-1.9617634E-2,-4.718807E-2,-2.03289E-3,1.38535295E-2,4.847112E-2,2.147576E-2,4.959484E-2,6.758302E-2,1.415122E-1],"categories":[],"categories_nodes":[],"categories_segments":[],"categories_sizes":[],"default_left":[0,0,0,0,0,0,0,0,0,0,0,0,0,0,0,0,0,0,0,0,0,0,0,0,0,0,0,0,0,0,0],"id":38,"left_children":[1,3,5,7,9,11,13,15,17,19,21,23,25,27,29,-1,-1,-1,-1,-1,-1,-1,-1,-1,-1,-1,-1,-1,-1,-1,-1],"loss_changes":[2.479011E2,3.0426224E1,5.56624E1,9.630539E0,2.1317772E1,2.4248695E1,2.6084244E1,9.07771E0,2.1168594E1,1.9801056E1,2.4941513E1,1.2345176E1,1.1775209E1,1.9690239E1,8.2189865E0,0E0,0E0,0E0,0E0,0E0,0E0,0E0,0E0,0E0,0E0,0E0,0E0,0E0,0E0,0E0,0E0],"parents":[2147483647,0,0,1,1,2,2,3,3,4,4,5,5,6,6,7,7,8,8,9,9,10,10,11,11,12,12,13,13,14,14],"right_children":[2,4,6,8,10,12,14,16,18,20,22,24,26,28,30,-1,-1,-1,-1,-1,-1,-1,-1,-1,-1,-1,-1,-1,-1,-1,-1],"split_conditions":[1.2592409E1,6.357674E-1,2.2254982E1,4.458797E1,1.6E1,1.2E1,2.2E1,1E0,5.030308E1,8.488427E0,4.6874504E1,1E0,9.111136E1,7.778568E1,2.8915285E1,-1.659781E-1,-4.3783416E-3,-2.3927653E-1,-7.4454084E-2,-3.9623927E-2,-1.3832795E-2,2.5537996E-2,-1.9617634E-2,-4.718807E-2,-2.03289E-3,1.38535295E-2,4.847112E-2,2.147576E-2,4.959484E-2,6.758302E-2,1.415122E-1],"split_indices":[2,2,2,1,0,0,0,0,1,2,1,0,1,1,2,0,0,0,0,0,0,0,0,0,0,0,0,0,0,0,0],"split_type":[0,0,0,0,0,0,0,0,0,0,0,0,0,0,0,0,0,0,0,0,0,0,0,0,0,0,0,0,0,0,0],"sum_hessian":[5E3,2.091E3,2.909E3,1.18E2,1.973E3,1.638E3,1.271E3,3E1,8.8E1,1.313E3,6.6E2,7.99E2,8.39E2,1.166E3,1.05E2,3E0,2.7E1,8E0,8E1,8.54E2,4.59E2,1.61E2,4.99E2,6.5E1,7.34E2,7.26E2,1.13E2,8.04E2,3.62E2,8.6E1,1.9E1],"tree_param":{"num_deleted":"0","num_feature":"3","num_nodes":"31","size_leaf_vector":"1"}},{"base_weights":[1.4212921E-4,-1.5398556E-1,2.6523498E-1,-3.7545276E-1,-7.872279E-2,2.3858337E-1,8.5597247E-1,-1.1599187E-1,-4.6552405E-1,-2.028124E-1,-1.0912992E-3,-2.9632485E-1,2.6123118E-1,6.435264E-1,2.2574978E0,-4.5901448E-2,1.6001757E-2,-8.6303525E-2,-4.108787E-2,-3.3535525E-2,-9.029075E-3,-1.1969132E-2,6.869746E-3,6.830203E-2,-6.1145008E-2,1.779851E-2,3.819153E-2,1.6642742E-1,4.456639E-2,2.6180226E-1,5.4359943E-2],"categories":[],"categories_nodes":[],"categories_segments":[],"categories_sizes":[],"default_left":[0,0,0,0,0,0,0,0,0,0,0,0,0,0,0,0,0,0,0,0,0,0,0,0,0,0,0,0,0,0,0],"id":39,"left_children":[1,3,5,7,9,11,13,15,17,19,21,23,25,27,29,-1,-1,-1,-1,-1,-1,-1,-1,-1,-1,-1,-1,-1,-1,-1,-1],"loss_changes":[2.0437245E2,5.269207E1,2.8749191E1,1.8688744E1,2.2753544E1,2.1411049E1,2.2069382E1,1.9766365E1,1.2570068E1,1.3526497E1,1.2042906E1,2.2638012E1,1.6910583E1,1.339603E1,4.755871E0,0E0,0E0,0E0,0E0,0E0,0E0,0E0,0E0,0E0,0E0,0E0,0E0,0E0,0E0,0E0,0E0],"parents":[2147483647,0,0,1,1,2,2,3,3,4,4,5,5,6,6,7,7,8,8,9,9,10,10,11,11,12,12,13,13,14,14],"right_children":[2,4,6,8,10,12,14,16,18,20,22,24,26,28,30,-1,-1,-1,-1,-1,-1,-1,-1,-1,-1,-1,-1,-1,-1,-1,-1],"split_conditions":[1.9011961E1,4.802884E0,2.3E1,4.6874504E1,9E0,1E0,2.846932E1,2.055227E0,3E0,1.1222423E1,5.767928E1,4.5197227E1,2.5330965E1,1.978337E1,7.117006E1,-4.5901448E-2,1.6001757E-2,-8.6303525E-2,-4.108787E-2,-3.3535525E-2,-9.029075E-3,-1.1969132E-2,6.869746E-3,6.830203E-2,-6.1145008E-2,1.779851E-2,3.819153E-2,1.6642742E-1,4.456639E-2,2.6180226E-1,5.4359943E-2],"split_indices":[2,2,0,1,0,0,2,2,0,2,1,1,2,2,1,0,0,0,0,0,0,0,0,0,0,0,0,0,0,0,0],"split_type":[0,0,0,0,0,0,0,0,0,0,0,0,0,0,0,0,0,0,0,0,0,0,0,0,0,0,0,0,0,0,0],"sum_hessian":[5E3,3.162E3,1.838E3,8.01E2,2.361E3,1.76E3,7.8E1,2.07E2,5.94E2,9.08E2,1.453E3,7.1E1,1.689E3,6.9E1,9E0,9.2E1,1.15E2,7E1,5.24E2,4.16E2,4.92E2,5.38E2,9.15E2,1.7E1,5.4E1,1.001E3,6.88E2,1E1,5.9E1,7E0,2E0],"tree_param":{"num_deleted":"0","num_feature":"3","num_nodes":"31","size_leaf_vector":"1"}},{"base_weights":[2.0462116E-4,-2.0196179E-1,1.6522636E-1,-3.6961153E-1,-1.3703062E-1,8.877218E-2,3.223638E-1,2.7024163E-2,-4.2518967E-1,-1.8770795E-1,1.0548188E-1,-8.0179624E-2,1.5346454E-1,1.0207805E-1,4.1646057E-1,-6.649505E-2,2.9362798E-2,-7.037663E-2,-3.6019284E-2,-7.8544654E-2,-1.715699E-2,1.4644674E-2,-2.1850677E-1,-2.9122478E-3,-9.0293095E-2,-5.8424693E-2,1.8666845E-2,1.4800018E-1,4.9095927E-3,3.667068E-2,7.497676E-2],"categories":[],"categories_nodes":[],"categories_segments":[],"categories_sizes":[],"default_left":[0,0,0,0,0,0,0,0,0,0,0,0,0,0,0,0,0,0,0,0,0,0,0,0,0,0,0,0,0,0,0],"id":40,"left_children":[1,3,5,7,9,11,13,15,17,19,21,23,25,27,29,-1,-1,-1,-1,-1,-1,-1,-1,-1,-1,-1,-1,-1,-1,-1,-1],"loss_changes":[1.6687598E2,2.4420395E1,3.3057426E1,1.3833237E1,1.9953999E1,2.0276321E1,1.863359E1,1.4584929E1,9.705139E0,1.2810616E1,2.6686802E1,2.1565475E1,3.295671E1,1.971178E1,1.0189087E1,0E0,0E0,0E0,0E0,0E0,0E0,0E0,0E0,0E0,0E0,0E0,0E0,0E0,0E0,0E0,0E0],"parents":[2147483647,0,0,1,1,2,2,3,3,4,4,5,5,6,6,7,7,8,8,9,9,10,10,11,11,12,12,13,13,14,14],"right_children":[2,4,6,8,10,12,14,16,18,20,22,24,26,28,30,-1,-1,-1,-1,-1,-1,-1,-1,-1,-1,-1,-1,-1,-1,-1,-1],"split_conditions":[1.3442255E1,3.7420833E0,2.4503027E1,3.8043446E1,2E1,4.9554165E1,7E0,7E0,6.357674E-1,3.1361364E1,9.919652E1,4.855624E1,1E0,3.1361364E1,2.9213415E1,-6.649505E-2,2.9362798E-2,-7.037663E-2,-3.6019284E-2,-7.8544654E-2,-1.715699E-2,1.4644674E-2,-2.1850677E-1,-2.9122478E-3,-9.0293095E-2,-5.8424693E-2,1.8666845E-2,1.4800018E-1,4.9095927E-3,3.667068E-2,7.497676E-2],"split_indices":[2,2,2,1,0,1,0,0,2,1,1,1,0,1,2,0,0,0,0,0,0,0,0,0,0,0,0,0,0,0,0],"split_type":[0,0,0,0,0,0,0,0,0,0,0,0,0,0,0,0,0,0,0,0,0,0,0,0,0,0,0,0,0,0,0],"sum_hessian":[5E3,2.247E3,2.753E3,6.26E2,1.621E3,1.853E3,9E2,7.7E1,5.49E2,1.341E3,2.8E2,5.13E2,1.34E3,2.7E2,6.3E2,2.1E1,5.6E1,1.02E2,4.47E2,3.4E1,1.307E3,2.76E2,4E0,4.84E2,2.9E1,5.7E1,1.283E3,9E0,2.61E2,5.5E2,8E1],"tree_param":{"num_deleted":"0","num_feature":"3","num_nodes":"31","size_leaf_vector":"1"}},{"base_weights":[1.21826306E-4,-1.271945E-1,2.191003E-1,-2.1722275E-1,-2.3082723E-3,1.9489284E-1,7.559385E-1,-3.0632725E-1,-1.0598488E-1,-1.9403979E-1,4.9900796E-2,-2.4957283E-1,2.1371333E-1,5.658153E-1,2.0112069E0,-2.2068743E-2,-4.493802E-2,-1.3817524E-2,3.8147338E-2,9.5806696E-2,-2.1392012E-2,-1.0462246E-2,1.1479574E-2,5.9884604E-2,-5.2269947E-2,1.6037265E-2,3.436423E-2,1.4557362E-1,3.752244E-2,2.3377047E-1,4.7014367E-2],"categories":[],"categories_nodes":[],"categories_segments":[],"categories_sizes":[],"default_left":[0,0,0,0,0,0,0,0,0,0,0,0,0,0,0,0,0,0,0,0,0,0,0,0,0,0,0,0,0,0,0],"id":41,"left_children":[1,3,5,7,9,11,13,15,17,19,21,23,25,27,29,-1,-1,-1,-1,-1,-1,-1,-1,-1,-1,-1,-1,-1,-1,-1,-1],"loss_changes":[1.3945341E2,3.5562023E1,2.3751366E1,1.818541E1,1.3283107E1,1.4784218E1,1.771582E1,1.2396889E1,1.2904013E1,6.7097626E0,1.0470984E1,1.6997276E1,1.1657433E1,1.1326532E1,3.9324799E0,0E0,0E0,0E0,0E0,0E0,0E0,0E0,0E0,0E0,0E0,0E0,0E0,0E0,0E0,0E0,0E0],"parents":[2147483647,0,0,1,1,2,2,3,3,4,4,5,5,6,6,7,7,8,8,9,9,10,10,11,11,12,12,13,13,14,14],"right_children":[2,4,6,8,10,12,14,16,18,20,22,24,26,28,30,-1,-1,-1,-1,-1,-1,-1,-1,-1,-1,-1,-1,-1,-1,-1,-1],"split_conditions":[1.9011961E1,1.1071685E1,2.3E1,1.3E1,5E0,1E0,2.846932E1,7.331229E1,1.025129E1,3.0738615E1,5.1721497E1,4.5197227E1,2.6722368E1,1.9891891E1,7.117006E1,-2.2068743E-2,-4.493802E-2,-1.3817524E-2,3.8147338E-2,9.5806696E-2,-2.1392012E-2,-1.0462246E-2,1.1479574E-2,5.9884604E-2,-5.2269947E-2,1.6037265E-2,3.436423E-2,1.4557362E-1,3.752244E-2,2.3377047E-1,4.7014367E-2],"split_indices":[2,2,0,0,0,0,2,1,2,1,1,1,2,2,1,0,0,0,0,0,0,0,0,0,0,0,0,0,0,0,0],"split_type":[0,0,0,0,0,0,0,0,0,0,0,0,0,0,0,0,0,0,0,0,0,0,0,0,0,0,0,0,0,0,0],"sum_hessian":[5E3,3.162E3,1.838E3,1.837E3,1.325E3,1.76E3,7.8E1,1.019E3,8.18E2,2.83E2,1.042E3,7.1E1,1.689E3,6.9E1,9E0,6.39E2,3.8E2,7.68E2,5E1,4E0,2.79E2,3.08E2,7.34E2,1.7E1,5.4E1,1.199E3,4.9E2,1.1E1,5.8E1,7E0,2E0],"tree_param":{"num_deleted":"0","num_feature":"3","num_nodes":"31","size_leaf_vector":"1"}},{"base_weights":[2.2068985E-4,-1.1446481E-1,1.9747464E-1,-2.8081128E-1,-5.6127254E-2,1.754371E-1,6.8621725E-1,-3.9619815E-2,-3.6364365E-1,-1.2916963E-1,2.9264644E-2,-2.2450985E-1,1.9237244E-1,4.9146459E-1,1.7326311E0,-3.6963705E-2,2.1862574E-2,-7.549741E-2,-3.0996878E-2,-2.3083465E-2,-3.7980431E-3,1.1563232E-1,1.872374E-3,5.4228973E-2,-4.7138046E-2,1.4434903E-2,3.0934948E-2,1.3695534E-1,3.16457E-2,2.0620902E-1,5.5819035E-2],"categories":[],"categories_nodes":[],"categories_segments":[],"categories_sizes":[],"default_left":[0,0,0,0,0,0,0,0,0,0,0,0,0,0,0,0,0,0,0,0,0,0,0,0,0,0,0,0,0,0,0],"id":42,"left_children":[1,3,5,7,9,11,13,15,17,19,21,23,25,27,29,-1,-1,-1,-1,-1,-1,-1,-1,-1,-1,-1,-1,-1,-1,-1,-1],"loss_changes":[1.1315607E2,3.0678772E1,1.9686928E1,1.6387909E1,1.46176E1,1.1970867E1,1.5248032E1,1.8063387E1,1.25998E1,1.17001915E1,1.2820864E1,1.3885245E1,9.44915E0,1.0016304E1,3.4921265E0,0E0,0E0,0E0,0E0,0E0,0E0,0E0,0E0,0E0,0E0,0E0,0E0,0E0,0E0,0E0,0E0],"parents":[2147483647,0,0,1,1,2,2,3,3,4,4,5,5,6,6,7,7,8,8,9,9,10,10,11,11,12,12,13,13,14,14],"right_children":[2,4,6,8,10,12,14,16,18,20,22,24,26,28,30,-1,-1,-1,-1,-1,-1,-1,-1,-1,-1,-1,-1,-1,-1,-1,-1],"split_conditions":[1.9011961E1,4.887498E0,2.3E1,4.6874504E1,1.3E1,1E0,2.773901E1,2.055227E0,3E0,1.1459504E1,5.0427175E0,4.5197227E1,2.6722368E1,1.978337E1,7.117006E1,-3.6963705E-2,2.1862574E-2,-7.549741E-2,-3.0996878E-2,-2.3083465E-2,-3.7980431E-3,1.1563232E-1,1.872374E-3,5.4228973E-2,-4.7138046E-2,1.4434903E-2,3.0934948E-2,1.3695534E-1,3.16457E-2,2.0620902E-1,5.5819035E-2],"split_indices":[2,2,0,1,0,0,2,2,0,2,2,1,2,2,1,0,0,0,0,0,0,0,0,0,0,0,0,0,0,0,0],"split_type":[0,0,0,0,0,0,0,0,0,0,0,0,0,0,0,0,0,0,0,0,0,0,0,0,0,0,0,0,0,0,0],"sum_hessian":[5E3,3.162E3,1.838E3,8.2E2,2.342E3,1.76E3,7.8E1,2.1E2,6.1E2,1.262E3,1.08E3,7.1E1,1.689E3,6.7E1,1.1E1,9.2E1,1.18E2,7.2E1,5.38E2,5.96E2,6.66E2,9E0,1.071E3,1.7E1,5.4E1,1.199E3,4.9E2,1E1,5.7E1,8E0,3E0],"tree_param":{"num_deleted":"0","num_feature":"3","num_nodes":"31","size_leaf_vector":"1"}},{"base_weights":[2.8903363E-4,-1.1390552E-1,1.6190368E-1,-2.554415E-1,-6.056009E-2,1.1746254E-1,3.6389726E-1,-6.201514E-2,-3.2263014E-1,-8.472399E-2,2.1156235E-1,8.676696E-2,3.8259095E-1,3.4521675E-1,2.0008707E0,-5.3881068E-2,7.2921105E-3,-6.167996E-2,-2.7103653E-2,-9.5905E-3,5.504815E-2,2.475858E-2,-1.9243023E-1,1.0392689E-2,-4.3190308E-2,3.393305E-2,1.5517484E-1,2.9807761E-2,9.574393E-2,-5.3851318E-2,3.0268365E-1],"categories":[],"categories_nodes":[],"categories_segments":[],"categories_sizes":[],"default_left":[0,0,0,0,0,0,0,0,0,0,0,0,0,0,0,0,0,0,0,0,0,0,0,0,0,0,0,0,0,0,0],"id":43,"left_children":[1,3,5,7,9,11,13,15,17,19,21,23,25,27,29,-1,-1,-1,-1,-1,-1,-1,-1,-1,-1,-1,-1,-1,-1,-1,-1],"loss_changes":[9.231445E1,2.2114452E1,1.8548264E1,1.0402832E1,1.4023821E1,1.3793724E1,1.0715424E1,1.3421385E1,8.863293E0,1.3951877E1,1.3864198E1,1.3609009E1,8.375217E0,1.0392681E1,1.2051273E1,0E0,0E0,0E0,0E0,0E0,0E0,0E0,0E0,0E0,0E0,0E0,0E0,0E0,0E0,0E0,0E0],"parents":[2147483647,0,0,1,1,2,2,3,3,4,4,5,5,6,6,7,7,8,8,9,9,10,10,11,11,12,12,13,13,14,14],"right_children":[2,4,6,8,10,12,14,16,18,20,22,24,26,28,30,-1,-1,-1,-1,-1,-1,-1,-1,-1,-1,-1,-1,-1,-1,-1,-1],"split_conditions":[1.7528046E1,4.802884E0,2E1,4.6874504E1,2.2E1,2.8697126E1,2.9893515E1,9.872257E-1,6.357674E-1,9.868691E1,9.919652E1,2.8350174E1,9.73131E1,9.449935E1,3.0287434E1,-5.3881068E-2,7.2921105E-3,-6.167996E-2,-2.7103653E-2,-9.5905E-3,5.504815E-2,2.475858E-2,-1.9243023E-1,1.0392689E-2,-4.3190308E-2,3.393305E-2,1.5517484E-1,2.9807761E-2,9.574393E-2,-5.3851318E-2,3.0268365E-1],"split_indices":[2,2,0,1,0,2,2,2,2,1,1,2,1,1,1,0,0,0,0,0,0,0,0,0,0,0,0,0,0,0,0],"split_type":[0,0,0,0,0,0,0,0,0,0,0,0,0,0,0,0,0,0,0,0,0,0,0,0,0,0,0,0,0,0,0],"sum_hessian":[5E3,2.93E3,2.07E3,8.01E2,2.129E3,1.698E3,3.72E2,2.07E2,5.94E2,1.956E3,1.73E2,1.523E3,1.75E2,3.69E2,3E0,4.5E1,1.62E2,8.7E1,5.07E2,1.923E3,3.3E1,1.71E2,2E0,1.475E3,4.8E1,1.7E2,5E0,3.44E2,2.5E1,1E0,2E0],"tree_param":{"num_deleted":"0","num_feature":"3","num_nodes":"31","size_leaf_vector":"1"}},{"base_weights":[3.1487594E-4,-1.6236779E-1,9.481881E-2,-1.9950679E-1,1.5104431E-2,2.1895926E-2,1.9029453E-1,-1.8665075E-1,-5.8986986E-1,3.3803377E-1,-8.904265E-2,-5.9726607E-2,9.87298E-2,1.6013998E-1,5.243135E-1,-2.2574054E-2,-1.6302181E-3,7.079393E-2,-7.921269E-2,2.12529E-2,1.1702134E-1,-7.8928165E-2,-8.331557E-4,1.510826E-3,-1.8488033E-2,5.275147E-3,4.0092524E-2,5.932272E-3,2.4712833E-2,1.5573378E-2,6.744059E-2],"categories":[],"categories_nodes":[],"categories_segments":[],"categories_sizes":[],"default_left":[0,0,0,0,0,0,0,0,0,0,0,0,0,0,0,0,0,0,0,0,0,0,0,0,0,0,0,0,0,0,0],"id":44,"left_children":[1,3,5,7,9,11,13,15,17,19,21,23,25,27,29,-1,-1,-1,-1,-1,-1,-1,-1,-1,-1,-1,-1,-1,-1,-1,-1],"loss_changes":[7.690153E1,1.2117531E1,2.202476E1,7.5180473E0,1.0758756E1,1.1263015E1,1.3714943E1,9.804859E0,1.3160343E1,7.897812E0,1.3670553E1,8.160459E0,1.2831207E1,1.1017902E1,6.1462517E0,0E0,0E0,0E0,0E0,0E0,0E0,0E0,0E0,0E0,0E0,0E0,0E0,0E0,0E0,0E0,0E0],"parents":[2147483647,0,0,1,1,2,2,3,3,4,4,5,5,6,6,7,7,8,8,9,9,10,10,11,11,12,12,13,13,14,14],"right_children":[2,4,6,8,10,12,14,16,18,20,22,24,26,28,30,-1,-1,-1,-1,-1,-1,-1,-1,-1,-1,-1,-1,-1,-1,-1,-1],"split_conditions":[1.1071685E1,2E1,2.1679417E1,1.07212925E1,2.1E1,1.2E1,2.2E1,8.818841E0,4.109167E1,9.495212E0,1.599902E0,7.30816E1,9.111136E1,6.1435837E1,5.0547436E1,-2.2574054E-2,-1.6302181E-3,7.079393E-2,-7.921269E-2,2.12529E-2,1.1702134E-1,-7.8928165E-2,-8.331557E-4,1.510826E-3,-1.8488033E-2,5.275147E-3,4.0092524E-2,5.932272E-3,2.4712833E-2,1.5573378E-2,6.744059E-2],"split_indices":[2,0,2,2,0,0,0,2,1,2,2,1,1,1,1,0,0,0,0,0,0,0,0,0,0,0,0,0,0,0,0],"split_type":[0,0,0,0,0,0,0,0,0,0,0,0,0,0,0,0,0,0,0,0,0,0,0,0,0,0,0,0,0,0,0],"sum_hessian":[5E3,1.837E3,3.163E3,1.519E3,3.18E2,1.794E3,1.369E3,1.472E3,4.7E1,7.7E1,2.41E2,8.7E2,9.24E2,1.257E3,1.12E2,1.197E3,2.75E2,6E0,4.1E1,6.8E1,9E0,2.4E1,2.17E2,5.45E2,3.25E2,8.03E2,1.21E2,5.83E2,6.74E2,3.3E1,7.9E1],"tree_param":{"num_deleted":"0","num_feature":"3","num_nodes":"31","size_leaf_vector":"1"}},{"base_weights":[3.1719648E-4,-8.507777E-2,1.4719266E-1,-2.484349E-1,-5.074961E-2,1.310322E-1,6.1608225E-1,-1.18459225E-1,-4.609505E-1,-1.2008116E-1,3.2631025E-2,-3.035665E-1,1.4821775E-1,-8.724985E-1,7.081209E-1,-2.732524E-2,6.1362293E-2,-7.415422E-2,-1.6771095E-2,-1.1233297E-2,-8.424711E-2,-3.9563406E-2,5.022807E-3,4.7601763E-2,-5.7276156E-2,9.82702E-3,2.5942484E-2,-2.4993706E-2,-9.967067E-2,2.1180737E-1,5.0470185E-2],"categories":[],"categories_nodes":[],"categories_segments":[],"categories_sizes":[],"default_left":[0,0,0,0,0,0,0,0,0,0,0,0,0,0,0,0,0,0,0,0,0,0,0,0,0,0,0,0,0,0,0],"id":45,"left_children":[1,3,5,7,9,11,13,15,17,19,21,23,25,27,29,-1,-1,-1,-1,-1,-1,-1,-1,-1,-1,-1,-1,-1,-1,-1,-1],"loss_changes":[6.273719E1,1.7724705E1,1.385424E1,1.5109798E1,1.5120993E1,1.3332027E1,8.975258E0,3.892356E1,1.6989994E1,7.898178E0,8.972878E0,1.4543138E1,9.483845E0,6.019473E-2,1.5566057E1,0E0,0E0,0E0,0E0,0E0,0E0,0E0,0E0,0E0,0E0,0E0,0E0,0E0,0E0,0E0,0E0],"parents":[2147483647,0,0,1,1,2,2,3,3,4,4,5,5,6,6,7,7,8,8,9,9,10,10,11,11,12,12,13,13,14,14],"right_children":[2,4,6,8,10,12,14,16,18,20,22,24,26,28,30,-1,-1,-1,-1,-1,-1,-1,-1,-1,-1,-1,-1,-1,-1,-1,-1],"split_conditions":[1.9011961E1,4E0,2.961942E1,7.221277E1,1.0502139E1,1E0,3.4928375E1,6.508139E1,8.647303E1,1.0395026E1,3.284172E1,4.5197227E1,7.778568E1,2E0,3.9913208E1,-2.732524E-2,6.1362293E-2,-7.415422E-2,-1.6771095E-2,-1.1233297E-2,-8.424711E-2,-3.9563406E-2,5.022807E-3,4.7601763E-2,-5.7276156E-2,9.82702E-3,2.5942484E-2,-2.4993706E-2,-9.967067E-2,2.1180737E-1,5.0470185E-2],"split_indices":[2,0,2,1,2,0,1,1,1,2,1,1,1,0,1,0,0,0,0,0,0,0,0,0,0,0,0,0,0,0,0],"split_type":[0,0,0,0,0,0,0,0,0,0,0,0,0,0,0,0,0,0,0,0,0,0,0,0,0,0,0,0,0,0,0],"sum_hessian":[5E3,3.162E3,1.838E3,5.48E2,2.614E3,1.778E3,6E1,3.41E2,2.07E2,1.427E3,1.187E3,6.7E1,1.711E3,3E0,5.7E1,2.82E2,5.9E1,1.05E2,1.02E2,1.413E3,1.4E1,4.6E1,1.141E3,1.7E1,5E1,1.182E3,5.29E2,1E0,2E0,6E0,5.1E1],"tree_param":{"num_deleted":"0","num_feature":"3","num_nodes":"31","size_leaf_vector":"1"}},{"base_weights":[2.8095173E-4,-9.887634E-2,1.0422952E-1,-1.5348372E-1,8.493557E-3,7.6794685E-3,1.6167524E-1,-8.161004E-2,-2.643507E-1,-1.0554311E-1,1.8713707E-1,-4.5894504E-1,7.2915755E-2,1.2157968E0,1.4479157E-1,-1.4752326E-2,5.2677423E-2,-2.4972914E-2,-2.6254445E-1,1.8848993E-2,-3.0340225E-2,4.2139467E-2,-1.2975953E-2,-1.7732125E-2,-1.4319031E-1,-5.9318184E-3,3.0739013E-2,1.3784277E-1,-1.2623577E-1,-4.3601494E-2,1.6132127E-2],"categories":[],"categories_nodes":[],"categories_segments":[],"categories_sizes":[],"default_left":[0,0,0,0,0,0,0,0,0,0,0,0,0,0,0,0,0,0,0,0,0,0,0,0,0,0,0,0,0,0,0],"id":46,"left_children":[1,3,5,7,9,11,13,15,17,19,21,23,25,27,29,-1,-1,-1,-1,-1,-1,-1,-1,-1,-1,-1,-1,-1,-1,-1,-1],"loss_changes":[5.1556908E1,1.5011066E1,1.3543037E1,1.3500832E1,1.762108E1,2.7795519E1,2.7071865E1,4.1421383E1,2.2371132E1,3.077471E1,2.5072025E1,3.0435001E1,2.4853615E1,1.14126625E1,1.4547985E1,0E0,0E0,0E0,0E0,0E0,0E0,0E0,0E0,0E0,0E0,0E0,0E0,0E0,0E0,0E0,0E0],"parents":[2147483647,0,0,1,1,2,2,3,3,4,4,5,5,6,6,7,7,8,8,9,9,10,10,11,11,12,12,13,13,14,14],"right_children":[2,4,6,8,10,12,14,16,18,20,22,24,26,28,30,-1,-1,-1,-1,-1,-1,-1,-1,-1,-1,-1,-1,-1,-1,-1,-1],"split_conditions":[1.536633E1,1.6E1,5.4528927E1,7.30816E1,7.3485855E1,1.730902E1,5.519398E1,6.809282E1,1.5276676E1,4.6874504E1,8.832342E1,1.7E1,1.6E1,2.8989555E1,5.7015766E1,-1.4752326E-2,5.2677423E-2,-2.4972914E-2,-2.6254445E-1,1.8848993E-2,-3.0340225E-2,4.2139467E-2,-1.2975953E-2,-1.7732125E-2,-1.4319031E-1,-5.9318184E-3,3.0739013E-2,1.3784277E-1,-1.2623577E-1,-4.3601494E-2,1.6132127E-2],"split_indices":[2,0,1,1,1,2,1,1,2,1,1,0,0,2,1,0,0,0,0,0,0,0,0,0,0,0,0,0,0,0,0],"split_type":[0,0,0,0,0,0,0,0,0,0,0,0,0,0,0,0,0,0,0,0,0,0,0,0,0,0,0,0,0,0,0],"sum_hessian":[5E3,2.559E3,2.441E3,1.696E3,8.63E2,9.11E2,1.53E3,1.03E3,6.66E2,5.27E2,3.36E2,1.11E2,8E2,2.3E1,1.507E3,9.3E2,1E2,6.63E2,3E0,2.12E2,3.15E2,1.93E2,1.43E2,8.7E1,2.4E1,5.12E2,2.88E2,2.2E1,1E0,4.1E1,1.466E3],"tree_param":{"num_deleted":"0","num_feature":"3","num_nodes":"31","size_leaf_vector":"1"}},{"base_weights":[1.7601272E-4,-1.2318359E-1,7.1836814E-2,-4.0940773E-1,-1.0330926E-1,-8.299776E-2,1.04017355E-1,-3.5821384E-1,-1.7916787E-1,-1.1840797E-1,2.5968173E-1,8.273935E-1,-1.0156095E-1,8.8845775E-2,6.0391974E-1,3.220571E-3,-5.488311E-2,-5.7623606E-2,-1.0698111E-2,1.0754882E-2,1.8391527E-1,-2.5663614E-2,1.265984E-1,-3.197316E-3,-2.7995646E-2,-4.0917686E-5,1.3804509E-2,8.627973E-2,3.0942536E-3],"categories":[],"categories_nodes":[],"categories_segments":[],"categories_sizes":[],"default_left":[0,0,0,0,0,0,0,0,0,0,0,0,0,0,0,0,0,0,0,0,0,0,0,0,0,0,0,0,0],"id":47,"left_children":[1,3,5,7,9,11,13,15,-1,17,19,21,23,25,27,-1,-1,-1,-1,-1,-1,-1,-1,-1,-1,-1,-1,-1,-1],"loss_changes":[4.421793E1,1.0413191E1,1.5773769E1,7.779091E0,9.457548E0,9.294402E0,1.9817232E1,8.650477E0,0E0,8.580856E0,1.638218E1,5.554795E0,6.6326175E0,1.1171478E1,1.1394787E1,0E0,0E0,0E0,0E0,0E0,0E0,0E0,0E0,0E0,0E0,0E0,0E0,0E0,0E0],"parents":[2147483647,0,0,1,1,2,2,3,3,4,4,5,5,6,6,7,7,9,9,10,10,11,11,12,12,13,13,14,14],"right_children":[2,4,6,8,10,12,14,16,-1,18,20,22,24,26,28,-1,-1,-1,-1,-1,-1,-1,-1,-1,-1,-1,-1,-1,-1],"split_conditions":[1.1071685E1,6.357674E-1,4E0,2.3E1,2.3E1,3.1006107E1,2.9322752E1,2.5707632E-1,-1.7916787E-1,3.1361364E1,1.025129E1,3.0287434E1,8.013042E1,5.4528927E1,7.444508E1,3.220571E-3,-5.488311E-2,-5.7623606E-2,-1.0698111E-2,1.0754882E-2,1.8391527E-1,-2.5663614E-2,1.265984E-1,-3.197316E-3,-2.7995646E-2,-4.0917686E-5,1.3804509E-2,8.627973E-2,3.0942536E-3],"split_indices":[2,2,0,0,0,1,2,2,0,1,2,1,1,1,1,0,0,0,0,0,0,0,0,0,0,0,0,0,0],"split_type":[0,0,0,0,0,0,0,0,0,0,0,0,0,0,0,0,0,0,0,0,0,0,0,0,0,0,0,0,0],"sum_hessian":[5E3,1.837E3,3.163E3,1.18E2,1.719E3,5.44E2,2.619E3,1.15E2,3E0,1.651E3,6.8E1,1E1,5.34E2,2.543E3,7.6E1,3.8E1,7.7E1,3.9E1,1.612E3,6.3E1,5E0,3E0,7E0,3.85E2,1.49E2,9.04E2,1.639E3,5.2E1,2.4E1],"tree_param":{"num_deleted":"0","num_feature":"3","num_nodes":"29","size_leaf_vector":"1"}},{"base_weights":[1.718546E-4,-6.499797E-2,1.1226103E-1,-1.9158612E-1,-3.3687066E-2,9.506254E-2,4.9421376E-1,1.3951263E-1,-2.3211247E-1,-1.5492146E-1,-8.45474E-3,-8.330724E-1,9.977341E-2,3.2696036E-1,1.4007984E0,-4.2776134E-2,3.6363196E-2,-3.554859E-2,-1.2208107E-2,-1.1302595E-2,-6.481821E-2,-2.5402207E-3,1.411026E-2,-1.9694248E-1,6.3341144E-3,8.763987E-3,4.59262E-2,6.621345E-2,-7.080221E-3,1.6948323E-1,3.8902283E-2],"categories":[],"categories_nodes":[],"categories_segments":[],"categories_sizes":[],"default_left":[0,0,0,0,0,0,0,0,0,0,0,0,0,0,0,0,0,0,0,0,0,0,0,0,0,0,0,0,0,0,0],"id":48,"left_children":[1,3,5,7,9,11,13,15,17,19,21,23,25,27,29,-1,-1,-1,-1,-1,-1,-1,-1,-1,-1,-1,-1,-1,-1,-1,-1],"loss_changes":[3.6538757E1,1.2530378E1,1.2033426E1,8.445608E0,7.7594376E0,7.782777E0,1.1520714E1,8.928003E0,7.545E0,8.957521E0,5.328817E0,9.2925205E0,7.6061077E0,9.112621E0,2.9106255E0,0E0,0E0,0E0,0E0,0E0,0E0,0E0,0E0,0E0,0E0,0E0,0E0,0E0,0E0,0E0,0E0],"parents":[2147483647,0,0,1,1,2,2,3,3,4,4,5,5,6,6,7,7,8,8,9,9,10,10,11,11,12,12,13,13,14,14],"right_children":[2,4,6,8,10,12,14,16,18,20,22,24,26,28,30,-1,-1,-1,-1,-1,-1,-1,-1,-1,-1,-1,-1,-1,-1,-1,-1],"split_conditions":[1.9011961E1,3.7420833E0,2.3E1,3.7391888E1,4E0,3.0287434E1,2.773901E1,7E0,1.1E1,9.3584305E1,2.2E1,8E0,2.961942E1,2.3099768E1,7.117006E1,-4.2776134E-2,3.6363196E-2,-3.554859E-2,-1.2208107E-2,-1.1302595E-2,-6.481821E-2,-2.5402207E-3,1.411026E-2,-1.9694248E-1,6.3341144E-3,8.763987E-3,4.59262E-2,6.621345E-2,-7.080221E-3,1.6948323E-1,3.8902283E-2],"split_indices":[2,2,0,1,0,1,2,0,0,1,0,0,2,2,1,0,0,0,0,0,0,0,0,0,0,0,0,0,0,0,0],"split_type":[0,0,0,0,0,0,0,0,0,0,0,0,0,0,0,0,0,0,0,0,0,0,0,0,0,0,0,0,0,0,0],"sum_hessian":[5E3,3.162E3,1.838E3,6.26E2,2.536E3,1.76E3,7.8E1,6.8E1,5.58E2,4.36E2,2.1E3,8E0,1.752E3,6.7E1,1.1E1,1.9E1,4.9E1,2.62E2,2.96E2,4.03E2,3.3E1,1.887E3,2.13E2,3E0,5E0,1.696E3,5.6E1,3.6E1,3.1E1,8E0,3E0],"tree_param":{"num_deleted":"0","num_feature":"3","num_nodes":"31","size_leaf_vector":"1"}},{"base_weights":[1.5789866E-4,-1.0231876E-1,5.968759E-2,-3.5258985E-1,-8.4944E-2,-2.4257931E-1,7.2407536E-2,-3.044572E-1,-1.6602896E-1,-9.7935244E-2,2.2732364E-1,2.4917424E-1,-3.956587E-1,1.9867234E-2,1.3973577E-1,1.1963029E-2,-4.4719476E-2,-5.214193E-2,-8.737275E-3,8.813358E-3,1.6741304E-1,-2.023603E-2,1.8262014E-1,-1.13143526E-1,-2.1775593E-3,8.856386E-4,6.350785E-2,6.964897E-3,2.1552673E-2],"categories":[],"categories_nodes":[],"categories_segments":[],"categories_sizes":[],"default_left":[0,0,0,0,0,0,0,0,0,0,0,0,0,0,0,0,0,0,0,0,0,0,0,0,0,0,0,0,0],"id":49,"left_children":[1,3,5,7,9,11,13,15,-1,17,19,21,23,25,27,-1,-1,-1,-1,-1,-1,-1,-1,-1,-1,-1,-1,-1,-1],"loss_changes":[3.0514227E1,7.962406E0,1.21825695E1,6.9847383E0,6.9998617E0,9.734086E0,1.0740446E1,7.0753508E0,0E0,7.343912E0,1.3747751E1,2.2444098E1,2.693462E1,1.1557588E1,7.055191E0,0E0,0E0,0E0,0E0,0E0,0E0,0E0,0E0,0E0,0E0,0E0,0E0,0E0,0E0],"parents":[2147483647,0,0,1,1,2,2,3,3,4,4,5,5,6,6,7,7,9,9,10,10,11,11,12,12,13,13,14,14],"right_children":[2,4,6,8,10,12,14,16,-1,18,20,22,24,26,28,-1,-1,-1,-1,-1,-1,-1,-1,-1,-1,-1,-1,-1,-1],"split_conditions":[1.1071685E1,6.357674E-1,1E0,2.3E1,2.3E1,4.378215E1,2.157534E1,4.458797E1,-1.6602896E-1,3.1361364E1,1.025129E1,3.8583965E1,6.1204514E1,9.888832E1,6.634449E1,1.1963029E-2,-4.4719476E-2,-5.214193E-2,-8.737275E-3,8.813358E-3,1.6741304E-1,-2.023603E-2,1.8262014E-1,-1.13143526E-1,-2.1775593E-3,8.856386E-4,6.350785E-2,6.964897E-3,2.1552673E-2],"split_indices":[2,2,0,0,0,1,2,1,0,1,2,1,1,1,1,0,0,0,0,0,0,0,0,0,0,0,0,0,0],"split_type":[0,0,0,0,0,0,0,0,0,0,0,